%YAML:1.0
---
opencv_ml_ann_mlp:
   format: 3
   layer_sizes: [ 16, 100, 100, 26 ]
   activation_function: SIGMOID_SYM
   f_param1: 2.
   f_param2: 1.
   min_val: -9.4999999999999996e-01
   max_val: 9.4999999999999996e-01
   min_val1: -9.7999999999999998e-01
   max_val1: 9.7999999999999998e-01
   training_params:
      train_method: BACKPROP
      dw_scale: 1.0000000000000000e-03
      moment_scale: 0.
      term_criteria:
         iterations: 20
   input_scale:
      - 5.2408943617296966e-01
      - -2.1005504601812626e+00
      - 3.0122671793060857e-01
      - -2.1081050627655711e+00
      - 4.9729770673076829e-01
      - -2.5434291210745141e+00
      - 4.4137109405434644e-01
      - -2.3606732965496717e+00
      - 4.5421753213553767e-01
      - -1.5883987098779753e+00
      - 4.9448486165045002e-01
      - -3.4021052966412610e+00
      - 4.2836213654503053e-01
      - -3.2192699647768679e+00
      - 3.6633861612500124e-01
      - -1.6952319461184433e+00
      - 4.1896578856550520e-01
      - -2.1732593384469885e+00
      - 4.0081035220020278e-01
      - -3.3256838163459626e+00
      - 3.8044432262590494e-01
      - -2.4680944986032958e+00
      - 4.8173907500611707e-01
      - -3.8215879081160260e+00
      - 4.2821053105623835e-01
      - -1.2999187091274227e+00
      - 6.4704690392696573e-01
      - -5.3954006083950032e+00
      - 3.8857905710246071e-01
      - -1.4327298414424829e+00
      - 6.2587895149324579e-01
      - -4.8686497757708098e+00
   output_scale:
      - 5.2631578947368418e-01
      - 4.9999999999999994e-01
      - 5.2631578947368418e-01
      - 4.9999999999999994e-01
      - 5.2631578947368418e-01
      - 4.9999999999999994e-01
      - 5.2631578947368418e-01
      - 4.9999999999999994e-01
      - 5.2631578947368418e-01
      - 4.9999999999999994e-01
      - 5.2631578947368418e-01
      - 4.9999999999999994e-01
      - 5.2631578947368418e-01
      - 4.9999999999999994e-01
      - 5.2631578947368418e-01
      - 4.9999999999999994e-01
      - 5.2631578947368418e-01
      - 4.9999999999999994e-01
      - 5.2631578947368418e-01
      - 4.9999999999999994e-01
      - 5.2631578947368418e-01
      - 4.9999999999999994e-01
      - 5.2631578947368418e-01
      - 4.9999999999999994e-01
      - 5.2631578947368418e-01
      - 4.9999999999999994e-01
      - 5.2631578947368418e-01
      - 4.9999999999999994e-01
      - 5.2631578947368418e-01
      - 4.9999999999999994e-01
      - 5.2631578947368418e-01
      - 4.9999999999999994e-01
      - 5.2631578947368418e-01
      - 4.9999999999999994e-01
      - 5.2631578947368418e-01
      - 4.9999999999999994e-01
      - 5.2631578947368418e-01
      - 4.9999999999999994e-01
      - 5.2631578947368418e-01
      - 4.9999999999999994e-01
      - 5.2631578947368418e-01
      - 4.9999999999999994e-01
      - 5.2631578947368418e-01
      - 4.9999999999999994e-01
      - 5.2631578947368418e-01
      - 4.9999999999999994e-01
      - 5.2631578947368418e-01
      - 4.9999999999999994e-01
      - 5.2631578947368418e-01
      - 4.9999999999999994e-01
      - 5.2631578947368418e-01
      - 4.9999999999999994e-01
   inv_output_scale:
      - 1.8999999999999999e+00
      - -9.4999999999999996e-01
      - 1.8999999999999999e+00
      - -9.4999999999999996e-01
      - 1.8999999999999999e+00
      - -9.4999999999999996e-01
      - 1.8999999999999999e+00
      - -9.4999999999999996e-01
      - 1.8999999999999999e+00
      - -9.4999999999999996e-01
      - 1.8999999999999999e+00
      - -9.4999999999999996e-01
      - 1.8999999999999999e+00
      - -9.4999999999999996e-01
      - 1.8999999999999999e+00
      - -9.4999999999999996e-01
      - 1.8999999999999999e+00
      - -9.4999999999999996e-01
      - 1.8999999999999999e+00
      - -9.4999999999999996e-01
      - 1.8999999999999999e+00
      - -9.4999999999999996e-01
      - 1.8999999999999999e+00
      - -9.4999999999999996e-01
      - 1.8999999999999999e+00
      - -9.4999999999999996e-01
      - 1.8999999999999999e+00
      - -9.4999999999999996e-01
      - 1.8999999999999999e+00
      - -9.4999999999999996e-01
      - 1.8999999999999999e+00
      - -9.4999999999999996e-01
      - 1.8999999999999999e+00
      - -9.4999999999999996e-01
      - 1.8999999999999999e+00
      - -9.4999999999999996e-01
      - 1.8999999999999999e+00
      - -9.4999999999999996e-01
      - 1.8999999999999999e+00
      - -9.4999999999999996e-01
      - 1.8999999999999999e+00
      - -9.4999999999999996e-01
      - 1.8999999999999999e+00
      - -9.4999999999999996e-01
      - 1.8999999999999999e+00
      - -9.4999999999999996e-01
      - 1.8999999999999999e+00
      - -9.4999999999999996e-01
      - 1.8999999999999999e+00
      - -9.4999999999999996e-01
      - 1.8999999999999999e+00
      - -9.4999999999999996e-01
   weights:
      -
         - -2.3937702784685042e-01
         - -5.9242928980286682e-03
         - -7.9615921440595053e-02
         - 3.4263131638842197e-02
         - -2.0207738690223263e-02
         - -7.2850605114702371e-02
         - 1.2801664674225810e-01
         - 3.3309157513652315e-01
         - 6.2648528256660327e-02
         - 2.7774417443297333e-01
         - 5.0342133643802259e-02
         - 2.2643615350333601e-01
         - -7.1306787399104163e-02
         - 2.4845754428072953e-01
         - -1.0906094737986347e-01
         - -2.6733675095940032e-02
         - -7.1826150149217380e-02
         - 3.5531389768489519e-02
         - -8.3950623345879549e-02
         - -3.3985487346006260e-02
         - 6.9990287680362934e-03
         - -7.0456005239911024e-02
         - -5.4881360190200623e-02
         - -2.3001172169110190e-01
         - -1.7659968097740089e-01
         - -9.4968412127940660e-02
         - 5.4038227054279166e-02
         - -2.5727683356316788e-01
         - -1.9198383453158474e-01
         - -5.2794493182679772e-02
         - 1.1289071200494918e-01
         - -6.7179851419014835e-02
         - 2.8441290445180806e-01
         - -1.6575847347160208e-01
         - 4.9675366639258527e-02
         - -1.2811076232486265e-01
         - 2.6843441898087472e-01
         - 2.4023227257302920e-02
         - 1.0531344592470834e-01
         - 1.9174127942741279e-01
         - -6.8495566469004371e-02
         - 1.9197310249891161e-01
         - -2.6309593509919765e-01
         - -8.8538540615123923e-02
         - 1.3273834690385503e-01
         - 1.1248129090010604e-01
         - -8.7969674241070994e-02
         - 2.5457691192437948e-01
         - 2.8315662082356430e-01
         - -2.5514121271615081e-01
         - 2.6975221168048169e-01
         - 1.1494887737541276e-01
         - 2.1281937647793395e-01
         - 3.4445184612876989e-02
         - 4.0072484227885938e-02
         - -6.5926804538168168e-02
         - -2.5249056352485105e-01
         - 3.9175406183080352e-01
         - -6.4956953144489862e-02
         - 1.5683726382693883e-01
         - -6.7708097056780769e-02
         - -1.0602043155843987e-02
         - 4.3368389796920787e-02
         - -4.9189541701679995e-02
         - -1.9870660632128437e-01
         - 1.2868335637850664e-01
         - 4.7770446634456537e-02
         - 1.2850889958866522e-02
         - 8.5462071225916078e-02
         - 1.0060171399373186e-01
         - 3.7457732568190079e-02
         - 3.0841573530232097e-01
         - -1.7807903706945288e-01
         - 1.2494260739191522e-01
         - 8.9362750219279627e-02
         - 1.2729780328655246e-01
         - -6.8173554368121461e-02
         - -4.6844500756166661e-02
         - 1.8572588402337106e-01
         - 1.6497819192604804e-01
         - 6.3815327742698907e-02
         - -2.6030175357908195e-02
         - 1.5970329419499138e-01
         - 1.6197993822800394e-01
         - 2.2358949468537712e-02
         - 1.4881751139246827e-01
         - 6.3538079096366181e-03
         - -3.5410984772306871e-02
         - 1.1609452244312242e-01
         - 1.8805831464528489e-01
         - -3.3183482347899956e-01
         - 8.6508777644203061e-02
         - 1.2628257766333989e-01
         - -1.8409774197340026e-01
         - 7.9062842770890734e-02
         - 5.7294236426282320e-02
         - -7.2445697186767979e-02
         - -2.1559292735470448e-01
         - -6.0458940678605799e-02
         - -1.4582011444894646e-01
         - 4.1085599793685382e-02
         - -5.7674696529434404e-02
         - -2.0212484797514415e-02
         - -3.7509039080136884e-02
         - -2.3167974626253732e-01
         - 2.9255274171510831e-01
         - 1.5345591337799619e-01
         - 1.5580187574710516e-01
         - 7.9210406999014424e-02
         - 2.0497159066765916e-01
         - 3.2594346496434265e-02
         - -1.0303538476739219e-01
         - 1.6003482875109672e-02
         - -1.0792566956482000e-01
         - 1.1533454822042669e-01
         - 9.7566057734790282e-02
         - -2.8087972118197485e-01
         - -6.9107395238985347e-02
         - -2.0485039638770178e-01
         - -2.2795303042456047e-01
         - 1.1771742304290109e-01
         - -3.9059436352752976e-02
         - -7.4847768176360713e-02
         - -2.1652141685914583e-01
         - -2.0345144238974164e-01
         - 4.3366658284945271e-02
         - -1.1676350635631419e-01
         - 1.0774427474600072e-02
         - -1.9716628129125766e-01
         - -9.2889633967535468e-02
         - 1.6598939465393533e-01
         - -4.3505666136977837e-02
         - 2.9928949822435248e-02
         - -2.4551362581346711e-02
         - 1.5712241414459344e-01
         - 7.1697971403652014e-02
         - 3.1702313109308095e-01
         - 1.9449924997519130e-01
         - -1.5633083576601384e-01
         - -1.6685870565627373e-01
         - 1.5949253944655067e-01
         - 5.9834882661817225e-02
         - -2.7719921602194597e-01
         - 6.5261593458113068e-03
         - -2.2540040679087472e-01
         - 2.4489578493154054e-02
         - -6.8871751576986565e-02
         - -8.9710342501224019e-02
         - 4.8283334885001902e-02
         - -2.0356773270241571e-01
         - 1.3215154013975355e-01
         - 8.8443247732886837e-02
         - 3.9919596724224717e-02
         - 1.2685917348152587e-01
         - -2.3686665156024903e-01
         - -4.8456472297108505e-02
         - 8.8225622970400250e-02
         - 2.8814682256216162e-01
         - 9.7911039142032433e-02
         - -2.9665293050010172e-01
         - -8.6197383345930176e-02
         - 1.4959482936382229e-01
         - -2.1656040679011279e-02
         - 1.8251435817635001e-01
         - -2.1610378365333011e-01
         - 2.7486677066062182e-01
         - 2.0989608824140908e-02
         - -1.7671196287744226e-01
         - 1.7393780961356223e-01
         - 1.5170694938797472e-01
         - -4.8148204949388491e-02
         - 1.6414711189596989e-01
         - 9.3322121687952800e-02
         - 1.6067022327075814e-01
         - -1.1951939958440731e-01
         - 1.1038629642319223e-01
         - -1.0538509939560635e-01
         - 8.3362051902947570e-02
         - -1.1264356942160350e-01
         - 1.3688668697590425e-01
         - -1.8048865509846362e-01
         - -9.5042035600097538e-02
         - 1.2233109391570504e-01
         - -2.8751517592941734e-03
         - -2.3193312769471539e-01
         - 1.1433399993411233e-01
         - 2.3155982374450665e-01
         - 1.8874514526374536e-01
         - 3.0412429506302418e-02
         - -1.5735456257329491e-01
         - -1.7737264156586516e-01
         - 3.6947077092490961e-02
         - 1.0322056641308868e-02
         - -1.8108047687066792e-01
         - 2.8565926592066004e-01
         - -9.7768361859470448e-03
         - 8.0841738293928791e-03
         - 8.0549398177590312e-02
         - -4.4637438049341220e-02
         - -5.8519104082656141e-02
         - -1.2490032327601784e-01
         - -2.1019060367671857e-02
         - -6.5502160618505348e-02
         - 1.0441597039622874e-01
         - -2.2252908412519481e-01
         - -1.5875654213628676e-01
         - -8.4105652216794224e-02
         - 2.2019536402935466e-02
         - 1.4229095471776704e-01
         - -1.6585971647198650e-02
         - 1.8442533811272621e-01
         - 2.3171451895619663e-01
         - -1.2417054266939082e-01
         - 1.3195693451520943e-01
         - -1.4346685966338779e-01
         - 1.6037397638934512e-03
         - 6.8616413938711346e-02
         - 1.0008677539980734e-01
         - -3.2426034463522810e-02
         - -1.7166180315841870e-01
         - 1.0216733570876674e-01
         - 4.9646923819287123e-03
         - 1.5448823084068870e-02
         - 1.5531560211762205e-01
         - 6.0415879974629647e-02
         - -7.9018447067195463e-02
         - -6.5101291088845201e-02
         - 8.1319937064894057e-02
         - 2.2782534197049872e-01
         - -5.4615272520821177e-02
         - 1.3834336619143064e-01
         - 6.1647386641536177e-02
         - 1.1326920053423820e-01
         - -7.6505401728600819e-02
         - 3.5995907267845982e-02
         - -1.6332049778176214e-01
         - 1.0170358013583107e-01
         - -4.7724500400485202e-03
         - 1.9318974094767166e-01
         - -5.6695144807649270e-02
         - 1.9730853283331834e-01
         - -2.4073408868277668e-01
         - 3.6953156559585261e-02
         - -2.2487980973905855e-01
         - 4.0888834323992575e-02
         - -3.1190438029804540e-01
         - 9.0472769487046509e-02
         - 6.2704145468268746e-02
         - -2.1390747500252991e-01
         - -5.4442750820939016e-02
         - 1.0493154080931531e-01
         - -2.1852234752897715e-01
         - 3.3049287478750067e-01
         - 2.7247783214320970e-01
         - -1.2946433932823928e-01
         - -1.3350304816314959e-01
         - 1.6026705086857163e-01
         - 2.0324177064876756e-01
         - -3.6476992103211203e-02
         - 1.8437531032896556e-01
         - -2.6448538116420600e-01
         - -1.5106963188710726e-01
         - 1.6053959376225505e-01
         - 6.3641562980922023e-02
         - 3.0185481856109064e-01
         - -1.6829398605149512e-01
         - 1.5654624009033052e-01
         - 3.2342902014098968e-01
         - 2.2498989736712269e-01
         - 2.4509391638772812e-01
         - -2.2696590669498037e-01
         - -1.8395964910583376e-01
         - 1.4526392415265124e-01
         - 9.6727153126639959e-02
         - 2.0247734561136710e-01
         - 5.5458590085572808e-02
         - -1.8101715605439847e-01
         - 2.5474825522854960e-02
         - 9.3835104947742151e-02
         - -1.8756084222660369e-01
         - -1.8280836267391791e-02
         - 2.1439784850326299e-02
         - -2.1320222941200551e-01
         - 2.2558858915825464e-01
         - 1.7021315108073368e-01
         - -1.7567833325214466e-01
         - 3.0394125917124415e-01
         - -1.3702973853458186e-01
         - 1.7967434223802883e-01
         - 3.9730032701504540e-02
         - -1.3685660416072465e-01
         - 2.1141642953895204e-01
         - 1.5989697227535848e-02
         - -1.8106181936997753e-01
         - 1.3585462933846382e-01
         - 2.1270589189926836e-01
         - 4.7762084187698034e-02
         - 2.5149763723688534e-01
         - 1.3061564364553882e-01
         - 7.7469886955546671e-02
         - 3.1902300031022783e-02
         - 2.0483137318583566e-01
         - 2.3413251338410568e-01
         - -2.1804492722596064e-01
         - -3.2227620650625238e-01
         - -1.0053962555725036e-01
         - -1.7645462626221917e-01
         - 1.0122786256414855e-02
         - -1.8895034104378453e-01
         - -1.6340049479679531e-02
         - -1.9121302756401393e-01
         - -2.4890631535370899e-03
         - -8.1399604759642585e-02
         - 2.6945915233941374e-02
         - -1.4720833534597266e-01
         - 2.5701298472229777e-02
         - -2.5264325739172585e-02
         - 7.8923816275122863e-02
         - -8.6075627284282544e-02
         - 1.5001092402859562e-01
         - 2.1732118472686312e-02
         - 2.3740025218586053e-01
         - -8.9577287236619049e-02
         - -3.9443869238287077e-02
         - -2.9254394013322818e-02
         - -1.6180038938288618e-01
         - 1.9110016012147729e-01
         - -2.6434703317391378e-01
         - 1.2066874890967193e-01
         - 1.6726440867366854e-02
         - -1.7685886592337971e-01
         - -1.9066104266606326e-01
         - -9.5884199488442887e-02
         - 8.1550642336315496e-02
         - -2.0521127430326527e-01
         - 2.5440118904485939e-02
         - -1.0901932376035670e-01
         - 1.3074500951100890e-01
         - 6.3254360853272629e-02
         - -2.2406494235794364e-01
         - 1.0307385922235497e-01
         - 3.7510566842866390e-02
         - -1.0022351937853226e-01
         - 1.0422906664061646e-01
         - 1.4020314061975178e-01
         - 2.0280438008966631e-01
         - 1.6013920237328474e-01
         - 3.2110439527219170e-01
         - -1.8497817184545143e-02
         - 1.6536738816913929e-01
         - -2.4705495648083928e-01
         - 3.3693244876328532e-01
         - 1.5492361191058884e-01
         - -2.2599659148827389e-02
         - 2.0836016858199710e-01
         - 2.7378667262852230e-01
         - -7.6033973431124002e-02
         - 7.6289850043815569e-02
         - -1.6122871151199175e-01
         - 8.3881180752905071e-02
         - -1.1738485007472692e-01
         - 7.4674024361746749e-02
         - -1.3221031881249268e-01
         - 1.8039902721107279e-01
         - -1.3026062449750000e-01
         - -8.5177172938550233e-02
         - 2.5032506096934398e-01
         - 6.4557786582289015e-02
         - -6.2955676496734822e-02
         - 1.6099088520243862e-01
         - -8.0715497898112359e-02
         - 7.3536517641480170e-02
         - 1.7409067606755879e-01
         - -1.4703675065609534e-01
         - -2.7708619853204610e-03
         - 3.2873340488229030e-01
         - -1.6143757175292675e-01
         - 9.3748221721123917e-02
         - -8.1587253044139080e-02
         - -1.3443089784271700e-01
         - -1.9584006060478706e-02
         - -1.0575603135895983e-02
         - 2.7433162385636028e-01
         - 1.9785644252376755e-01
         - 1.2424462166106769e-01
         - 4.5035900989391926e-02
         - 2.3129539648734521e-01
         - -1.3516963264566617e-01
         - -7.7189721454765547e-02
         - 1.9473252265126081e-01
         - -2.0482254238766129e-01
         - -2.3177595994143610e-01
         - 7.5444800139700730e-02
         - 2.8102948640010389e-01
         - 6.9888903774557642e-02
         - -2.0666747704640287e-01
         - 1.4379685116742336e-02
         - -7.4851496749214251e-03
         - -2.0817492699833809e-01
         - -2.5511216149102463e-02
         - -3.8553322355528030e-01
         - -8.9970220160582079e-02
         - -1.3378032749306390e-01
         - 2.0106688401306541e-02
         - 6.7409624579409119e-02
         - -3.5880594838416602e-02
         - -4.4057250081238480e-02
         - 3.5960762594615109e-01
         - 1.1808990239582548e-01
         - -1.5986373402943946e-01
         - -1.1676045072762455e-02
         - 1.3054531290347077e-01
         - 2.6224581882623325e-02
         - 1.7880539560597952e-01
         - 3.7934231786464254e-02
         - 1.1212984221639782e-01
         - 1.1152913815221374e-01
         - 2.2039292282758190e-02
         - 3.4930932473923587e-01
         - 1.0533118656181045e-01
         - -2.2559348712040270e-02
         - -1.1931126777925224e-01
         - -7.3456093413924867e-02
         - 6.7165998476304806e-02
         - 4.7683783665819302e-01
         - -1.2005524509313845e-01
         - 1.5044126725762394e-01
         - 2.2674685382290050e-01
         - -1.5063105875456870e-01
         - -1.0669298967985980e-02
         - -1.8454503171460723e-01
         - 4.3106672863554164e-02
         - -2.3143471065198584e-01
         - 3.4602987583071482e-01
         - 1.2646324134374073e-02
         - 1.3183550632097221e-01
         - -7.3443418843008507e-02
         - 3.7143216518510942e-02
         - 3.0342499438012666e-01
         - 4.0992423097604275e-01
         - -6.3593432784441475e-02
         - 1.5231491043628695e-01
         - -2.3001540497004630e-01
         - 1.4650200348994594e-01
         - 1.8536012282277572e-01
         - 1.7576472597956244e-01
         - -3.3386848922323187e-02
         - -3.5548259864353937e-01
         - -3.0100965686308251e-01
         - -1.3517755009331731e-01
         - -2.4301715160125859e-01
         - -1.6646483266094916e-01
         - -1.3060427253111179e-01
         - 1.5770778773114896e-01
         - -1.6666585078573504e-01
         - -2.2185480427681892e-01
         - 2.3256073561713009e-01
         - -2.0249818712698237e-01
         - 3.3830304919830775e-03
         - -2.1008459685131015e-01
         - 2.4224082256324345e-01
         - 1.7502269161520209e-01
         - 1.6902098764204485e-01
         - -2.0839377124911720e-01
         - 4.3287391387749491e-01
         - -1.9465860211653924e-01
         - 2.6263070865594768e-01
         - -2.3120437677944022e-01
         - -3.0873499285059314e-01
         - -2.1597209104483681e-01
         - 3.6808981502097921e-01
         - -6.4184920439416304e-01
         - -2.0035259525903718e-01
         - 3.2994971506900943e-02
         - -1.4776329870985888e-01
         - 5.7870086608624818e-02
         - -1.3947125247326378e-01
         - 1.5992999432390520e-02
         - -9.5767534230310397e-02
         - 3.6281247149415713e-01
         - 4.9660645020665695e-02
         - -3.6726387755804543e-02
         - -4.0747375187572110e-01
         - 3.8879504736636199e-02
         - -1.7519493844259049e-02
         - -1.7884330888247698e-02
         - -1.2349333479664812e-01
         - 9.0124916096734772e-02
         - -6.8401392114531959e-02
         - -2.2354774072145503e-01
         - -2.8313881307038313e-01
         - -1.0290933935870679e-01
         - -1.4932423152680005e-01
         - 6.5455187720158348e-02
         - 1.7469919982460907e-01
         - 1.4444216919540723e-01
         - 2.0299718067142702e-01
         - 1.2626686845094088e-02
         - -2.0607364809718209e-01
         - -2.2120985061172319e-03
         - -2.3840995113936692e-01
         - -1.0233670588294305e-01
         - 3.6111432345977967e-01
         - -7.3700102501197559e-02
         - -1.4102106437241466e-01
         - -8.4868780532494248e-02
         - 1.1587126307461561e-01
         - -1.9271244208249910e-02
         - 4.7713949415079358e-02
         - 2.9493483477311616e-01
         - 2.5504309050208607e-01
         - -3.8440408097354806e-01
         - 5.0201196420057964e-02
         - -3.7291445558935370e-02
         - -4.9095069643867872e-01
         - 2.5191051150894272e-01
         - 5.1471369824413971e-01
         - -1.7214665287881267e-01
         - 5.1344575001395998e-01
         - -2.9155740615682096e-01
         - -3.1705525250987319e-02
         - -1.6195238825851097e-01
         - -2.3546157441613161e-01
         - -2.6756273388652507e-01
         - -2.6827114543871004e-03
         - -1.0573762032393672e-01
         - -1.1345981140040112e-03
         - 1.1162223889142073e-01
         - -1.2014527019872620e-01
         - 3.6302571232564512e-01
         - 4.6179146598037618e-01
         - 4.3074796646846630e-01
         - -1.4902533551273417e-01
         - 3.2696326988279284e-01
         - -1.9364709483323836e-01
         - -2.3500203762546004e-01
         - 7.8805877335977298e-02
         - 3.5934332916501355e-01
         - 1.9035186667243875e-01
         - -9.5319286946437459e-02
         - 1.8698207555729521e-01
         - 9.6889512643397763e-02
         - -1.9786784272496954e-02
         - 2.0027351585675085e-01
         - 1.2455078880417114e-01
         - 1.2397647995971225e-01
         - 1.4083678162652169e-01
         - 1.1389472141503397e-01
         - 2.1847650058742091e-01
         - -2.2254443932976017e-01
         - 2.3401738435682579e-01
         - -7.6462777334446577e-02
         - -1.0973469817055638e-01
         - -1.0689371282129372e-02
         - 1.0482797116086820e-01
         - 2.7501898184028484e-01
         - -2.5077595277781861e-01
         - 8.4044487341614946e-02
         - -2.2502006602146105e-01
         - 2.6337352325076857e-01
         - -2.6247305786692693e-01
         - 1.1882902933158761e-02
         - 1.6513408902808235e-01
         - 2.5475854746688820e-01
         - -2.5712559362601906e-01
         - -8.0304653229872638e-02
         - 2.9740129522139486e-01
         - -1.1238535274031548e-02
         - -1.0450728371470977e-01
         - -3.2332300945685560e-01
         - -2.1149970087604320e-01
         - -1.9116020934010530e-01
         - -1.2891742279223700e-01
         - 3.2805977203086223e-01
         - -2.9462142575403549e-01
         - 3.6084356023571945e-01
         - 1.3127813400162211e-01
         - -1.8932541454291504e-01
         - -3.9172626723044024e-01
         - -2.0546555606811040e-01
         - -2.8097065906402113e-01
         - -1.6998210472466022e-01
         - -2.4705787118366768e-01
         - 2.2328220587130754e-01
         - 1.2786725034076804e-01
         - -1.0710605660080344e-01
         - -1.4958752162064503e-02
         - 1.1998789401546953e-01
         - 1.3532168126696720e-01
         - -2.5291307414468395e-01
         - -1.7407722767523970e-01
         - 1.4968188371695831e-01
         - -1.7231776218804718e-02
         - -4.7775396009204607e-02
         - -1.7264726228973645e-01
         - 1.3323358681531372e-01
         - -1.9704879888885324e-01
         - 8.2361128992753135e-02
         - -2.9197786419522594e-02
         - -1.9323435244557161e-01
         - 2.4910360429186840e-01
         - -6.6957798637958588e-02
         - -3.4264277085873834e-01
         - -2.2946775131072161e-01
         - -2.6871470071560205e-01
         - -2.6731933983404874e-02
         - -2.2823286457496018e-02
         - -1.4948065519887435e-01
         - -1.8096081694569122e-01
         - -2.7677613508162563e-01
         - -3.7578340012206987e-02
         - -2.1486381574630883e-01
         - -3.0748334434325592e-01
         - -3.0018153696019889e-01
         - -7.6507264824436344e-02
         - 1.9808399352030315e-01
         - -3.9907635639217359e-01
         - 3.1156857138942518e-01
         - 4.8408341927212428e-01
         - 1.3367080300513148e-01
         - 2.2470691314957025e-01
         - -4.5403506127044253e-02
         - 1.6153602643619797e-01
         - 2.5402644215648040e-01
         - -3.2603536767665198e-01
         - 8.2723861829708423e-02
         - 1.6705546699319324e-01
         - -3.4468219598892658e-01
         - 3.5981982483389581e-02
         - -2.2273443788253661e-01
         - -3.6213386054035840e-01
         - 1.4959831304207555e-01
         - 2.4079683264613666e-01
         - -1.9707118106397589e-01
         - 1.1680529507770790e-01
         - -3.4594855105320965e-01
         - 2.1649962867887398e-01
         - 1.7355229365860084e-01
         - -9.6107828761395647e-02
         - -2.1451981692191627e-01
         - 3.5943862317937014e-01
         - 2.3502501392362127e-01
         - 1.0031029668407399e-01
         - 4.5215734860701295e-01
         - 3.8613149421634685e-01
         - 2.1475211427183771e-01
         - -2.0773903012005576e-01
         - -1.5060453849241090e-01
         - -2.1287403375917119e-01
         - -1.3094681348763482e-01
         - 2.3922182346772625e-01
         - 1.6599069357825927e-01
         - -8.6910716767455459e-02
         - 5.7838515526222149e-02
         - 1.1015789320198763e-01
         - 3.6166393570407607e-01
         - 1.6327817155564481e-01
         - -5.6151684828395713e-02
         - -4.6460761338392853e-01
         - -1.3720052638237723e-01
         - 9.5772634810223939e-02
         - 2.5136734542815881e-01
         - -6.1073527124558866e-02
         - -2.6353998381000776e-01
         - 3.6233496294987860e-01
         - 3.7545806594741375e-02
         - -1.6562866886694552e-01
         - -1.3803535061895111e-01
         - 1.3523126075416869e-01
         - 6.4861809047047331e-02
         - 7.4977523609995891e-02
         - -9.5249167487610989e-02
         - -1.7159395989463258e-01
         - -4.2318001243173203e-01
         - -1.5716937280793547e-01
         - -2.9596751763160467e-01
         - 4.9016043637403611e-02
         - -2.1088104297134666e-01
         - 3.3354352850942631e-01
         - 1.9599502876101096e-02
         - -9.0714774957170799e-02
         - 3.2780086523264189e-02
         - -1.5018981436733517e-01
         - -3.2660890044648178e-01
         - 4.0351058575397775e-01
         - 2.0174822464957151e-01
         - -7.7115596406806236e-02
         - 1.5858475332209329e-01
         - -1.0501187440524667e-02
         - 3.2210021429659577e-02
         - -2.4884714303330233e-01
         - 2.8388608600209536e-01
         - 4.8505940659363346e-02
         - 3.7821145952759934e-02
         - -2.2302661190485928e-01
         - -1.9404329347793497e-01
         - -7.4995401587440738e-02
         - -4.2472461305271136e-01
         - 3.2828550520748852e-02
         - 1.8527305178081446e-01
         - -4.4003535496759658e-02
         - 2.4934673298904317e-01
         - -1.4353639737292709e-01
         - 1.2312604058239070e-01
         - -4.0674313091461018e-03
         - -1.0262363726538670e-02
         - 2.6748494642125298e-01
         - -2.3892144619171352e-01
         - 6.5925027365599138e-03
         - -3.0313079465394555e-01
         - -2.9191913468970532e-01
         - 4.0561640600108910e-02
         - 1.9817812560584725e-02
         - -1.0194194616577285e-01
         - 1.0332245468402737e-01
         - -5.8334615399653351e-02
         - 1.4420586469905403e-01
         - -2.1633019391789896e-01
         - 3.7387903911014764e-01
         - -1.0130350796573384e-01
         - -3.3970343116778323e-01
         - 4.8393885741288521e-02
         - -4.0461570777564439e-02
         - -9.1136846082876824e-02
         - -6.0905791820105171e-01
         - -4.9526197910165083e-02
         - 2.6485064945969466e-01
         - 2.1906256636786534e-01
         - -3.7387674824086592e-01
         - -2.8425924014561810e-01
         - 6.4722455189244023e-03
         - 2.7043072246157257e-01
         - 2.0515389156558501e-02
         - -1.8873827105239799e-01
         - 2.4539346744283400e-01
         - 2.4024363044863428e-01
         - 1.6337844599990878e-01
         - 1.3006988536480482e-01
         - -2.5797490502825121e-01
         - -6.9413105328694630e-02
         - -3.0655872319406080e-01
         - 2.5853892236033527e-01
         - 1.9658651922566214e-01
         - -7.3388138601014996e-01
         - 3.9691124668875193e-02
         - 2.2833877267503140e-02
         - -2.4786001457993496e-02
         - 9.1765000890365367e-01
         - 1.3393985272258993e-01
         - -2.8408660738756097e-01
         - -3.6793178491873402e-01
         - 1.4690121256341987e-01
         - -3.0094879482001485e-01
         - 3.7175499879208002e-01
         - 4.3833241503020226e-01
         - -2.9294069686128366e-01
         - -1.8190747380824862e-01
         - -1.2986366544182062e-01
         - -2.2359489392390100e-01
         - 1.4104627362700772e-01
         - 2.8882868225388342e-01
         - -1.6168313207302590e-01
         - -1.1522894334568812e-01
         - -1.6987006103556174e-01
         - 1.2243377403820026e-01
         - 1.4026855382345635e-01
         - -9.5779721155539552e-02
         - -3.3090675749398396e-01
         - -4.3187264058515706e-01
         - -3.2758938859018018e-02
         - -2.7925755412552739e-01
         - -6.1077479407548463e-01
         - 6.8589610004849089e-02
         - 5.8128057986158006e-02
         - 1.9675361751988013e-01
         - -1.8992060480869372e-01
         - 2.8002653007005995e-01
         - 5.2180937932477731e-02
         - 5.0252103692933547e-01
         - 2.2028961133629960e-01
         - -3.4156216802404424e-02
         - 4.1249677790343592e-01
         - 2.3856768514139207e-02
         - -7.5426901962594176e-02
         - 6.0353891005703935e-03
         - -4.4618158752115589e-01
         - 3.3753282390068626e-02
         - -1.4277554692803587e-01
         - -2.8509056071711836e-01
         - 3.5407346330580491e-01
         - -1.2870838599279073e-02
         - -3.0868011870531842e-01
         - 2.7800296147090869e-01
         - 3.4657602363361689e-01
         - 1.4523819093719817e-01
         - 4.0711689616117297e-01
         - 6.7529675206509807e-02
         - 5.2204212902584674e-02
         - -8.0209575748377532e-02
         - -3.0180504985445916e-01
         - -5.2684179517074100e-03
         - -2.9120957081899579e-01
         - -4.1856595514485041e-02
         - 7.5469641439742302e-02
         - 1.9171009593559452e-01
         - -9.8278251052340324e-02
         - 2.3821741937371355e-01
         - -1.9760097756936820e-01
         - 2.4087078262444103e-01
         - 9.6333359238264124e-02
         - 5.3168600027846159e-02
         - 4.6869961335029471e-02
         - 6.1998063607928733e-01
         - -2.0915979968430257e-02
         - -9.9789134603656529e-02
         - -1.3534744207454874e-02
         - -2.4968151728068075e-01
         - -5.4940756495542808e-02
         - -4.5181168498329455e-01
         - -2.0720121660794757e-01
         - 5.2926565403209620e-02
         - -5.1064926829270796e-01
         - 3.1446932735840405e-01
         - 6.8811028624246606e-01
         - 1.6246648496016512e-02
         - -3.4682966185824804e-01
         - 1.7136990302277400e-01
         - 3.5757125704597137e-01
         - -2.1407455600587122e-01
         - -2.8454661935257469e-01
         - -1.0199368027944369e-01
         - -2.9071099231093023e-01
         - 1.2539703556620718e-01
         - -1.2273306915735322e-02
         - 1.8146494258601512e-01
         - 2.4188792147423741e-01
         - -1.4352101617663706e-02
         - 4.7883034845639799e-02
         - 1.5019896738832567e-01
         - -3.3837250510156219e-01
         - -1.6078068153686237e-01
         - 5.8560450847192178e-02
         - 1.1376717686982432e-01
         - 6.7343413510961081e-01
         - -4.9575528062422808e-01
         - 1.6477038024559049e-01
         - -9.8147631460000606e-02
         - -9.5457080839137354e-01
         - 2.6968674507767232e-01
         - 1.1934565645334219e-02
         - -4.5801512935385272e-02
         - -5.7873989893792288e-01
         - 2.0208691328613643e-01
         - -6.3441096754117493e-02
         - -8.3210986442941948e-02
         - 3.1439360496071989e-01
         - 2.3033724263710212e-01
         - 9.1973645296332326e-02
         - -3.3320252637225968e-02
         - 4.8113702950308712e-01
         - 3.5253962115041743e-01
         - 1.3838014300893775e-01
         - -4.6395349634945027e-01
         - 3.1660545413524574e-02
         - -4.5015374296361843e-01
         - 3.5976902109931630e-01
         - 1.2609833475922680e-01
         - -4.4804065367048362e-01
         - 6.6024899806854734e-02
         - -1.8105956415443086e-01
         - -1.4076647890214572e-01
         - 4.3536895513357918e-02
         - 5.9653513044027162e-02
         - 5.5437336253892425e-02
         - -4.7507660994257350e-01
         - -1.8454975389603315e-01
         - 1.2818008318624560e-02
         - 3.6230758943793251e-01
         - -2.2132731107424611e-01
         - -3.9008835884506717e-02
         - 6.5307127044592378e-02
         - 5.8527654660414541e-01
         - -2.9927655314168877e-01
         - 3.7551323818659818e-02
         - -1.8780761251209016e-01
         - 3.6058573932764915e-01
         - 5.9731432893672345e-02
         - 1.5127951387081792e-01
         - 1.0663619616947617e-01
         - 2.9347108070099520e-01
         - -6.4095126225291121e-02
         - 4.0459181958028355e-02
         - 3.7516096457593895e-01
         - -1.7888834979815882e-01
         - -1.5720285420656430e-01
         - -2.3967975540110081e-01
         - -5.9455296295623059e-02
         - -1.1807971812528031e-01
         - -1.6499176500997356e-01
         - 3.5631513144214776e-02
         - 9.7703917829759998e-02
         - -3.2569549950136123e-01
         - 7.8799062732145889e-02
         - 1.4001365444157493e-01
         - -4.7461434547143432e-02
         - -1.9664601423942028e-02
         - 4.1143886476534042e-01
         - 1.3290793196409140e-01
         - -2.0559303726578995e-01
         - -3.6962738577089155e-01
         - 3.1754630544747381e-01
         - -1.3614150193302188e-01
         - 1.7177952720636119e-01
         - -1.8109046531629214e-01
         - -1.1656460394933892e-01
         - -6.8183338422535406e-02
         - 1.6991535721853362e-01
         - -5.8880861596856471e-01
         - 3.1044779153458646e-01
         - -1.1956112923969640e-01
         - -1.0576274606880615e-01
         - 9.4931507692634962e-02
         - -4.3864843581204532e-01
         - 3.1912526913205175e-01
         - -4.6683939140925301e-01
         - 3.2584191345791991e-01
         - -2.6341469567499604e-01
         - -3.1701222712413391e-01
         - 1.1377048912542825e-01
         - -1.2572007308682765e-02
         - -4.4411498147478572e-02
         - 3.7164601061166780e-01
         - 2.3194196183801702e-01
         - -1.8108161635357664e-01
         - 1.3016789051888347e-01
         - 2.0368715919618463e-01
         - -2.7225350543857352e-01
         - 1.7777718144622151e-01
         - 1.3945993108613516e-01
         - -4.9404352657582043e-02
         - -5.6584095604620327e-02
         - 3.7703539454721197e-01
         - -8.0388704489556692e-02
         - 1.3701551925888697e-01
         - -2.7764489807244408e-01
         - -3.0987902844501175e-01
         - -2.2439176510778962e-02
         - -7.0513831228704388e-02
         - -1.0854911202123324e-01
         - -1.7946797904420317e-01
         - -6.6505715300949664e-01
         - 2.8040193666875884e-01
         - -1.5931860601454317e-01
         - -1.7547025909037428e-01
         - -1.5326237814845306e-01
         - -1.2859770612122734e-01
         - 4.1485890636827877e-01
         - 5.2605479463526651e-02
         - -2.0665081426863358e-01
         - -9.2915521908686807e-02
         - -1.9054629084278729e-01
         - 2.7830844125680460e-01
         - -3.3273240835127427e-01
         - -6.1102543004692567e-01
         - -2.2228826109735900e-01
         - -2.8581485066490386e-01
         - 2.5350238162316058e-01
         - -1.9033013994131573e-01
         - -5.2539578303624199e-02
         - 1.9826671361759840e-01
         - 6.4062278239136100e-02
         - 1.6220391912846890e-01
         - -1.1654470792408156e-01
         - 4.1738279264196670e-01
         - -1.5451111473512533e-01
         - 3.1106336802546236e-02
         - -2.8838143471780103e-01
         - 2.2749873730724682e-01
         - -6.0968842568973738e-02
         - -1.8182574435696128e-01
         - -4.8201809838452132e-02
         - 3.7895813015807961e-01
         - 3.0162584070509524e-03
         - 2.6042169298266032e-01
         - 1.2435090719761489e-01
         - 4.5324606427715852e-01
         - -6.9535712862323865e-02
         - 2.5806188084927129e-01
         - 3.0526435931764295e-01
         - 6.5890896383723363e-02
         - -1.6569836346834740e-01
         - -2.8474410462578914e-01
         - 2.6047632211538702e-01
         - -1.3904903380056949e-01
         - -4.4999914216174906e-02
         - -3.6320513109763342e-01
         - 8.4104476498219047e-02
         - -1.0798394890386745e-01
         - -3.0857731067735771e-02
         - -1.4650438379269817e-01
         - 1.9951482381627916e-01
         - -2.1657360481662596e-01
         - -2.0666402907070330e-01
         - -1.6979839529222227e-01
         - 9.8295318346101515e-02
         - 1.0940577022352321e-02
         - -2.8936255914848052e-01
         - 1.6609328564363729e-02
         - -1.5605173459565191e-01
         - 5.9949396742448827e-02
         - 2.4303087809827845e-01
         - 1.8799855340349139e-01
         - -3.1628247496662759e-01
         - 3.4630007153748599e-01
         - 1.6505954140699644e-01
         - -2.6270550948416332e-01
         - -3.2689581136148393e-01
         - -1.0484960083258948e-01
         - 3.9475976899477982e-01
         - 3.7978894633989030e-01
         - -2.8225854058723054e-01
         - 1.2441036368500936e-01
         - -3.6745047824497523e-01
         - 2.4010861631960304e-01
         - 5.7114586940843183e-02
         - 2.1139278348906440e-01
         - 1.9356573717091172e-01
         - -1.8817664530636916e-01
         - -5.0774176357726263e-02
         - -2.6459255170307833e-01
         - -3.1752743251063681e-01
         - -4.1583414230474730e-01
         - -1.4621599743300145e-01
         - 1.7475473047230591e-01
         - 3.2170939340376742e-01
         - 9.4749198103244003e-02
         - -1.5806808626100086e-01
         - 3.2060371104599979e-02
         - -2.3717313532587089e-01
         - 8.7036579326178365e-02
         - 2.4126240044659145e-01
         - 2.0462948702973441e-01
         - 9.2772886096319535e-02
         - 3.8105583738603355e-01
         - -4.6240553262574882e-02
         - -1.0155696307923884e-01
         - 2.3449064560115937e-01
         - 2.0916129666890171e-01
         - 2.2456574355515366e-01
         - -9.0391448880017267e-02
         - 2.6879235025504583e-01
         - -1.3280510979705065e-01
         - -7.3231479619086715e-02
         - -8.0624292310780166e-02
         - -1.1607140101614229e-01
         - 4.3749102438263260e-01
         - -5.0512314353987542e-01
         - -3.6283523150400683e-02
         - -1.0494528716899673e-01
         - 6.1586378341646590e-02
         - -2.2169906896005931e-01
         - 1.0826420860659094e-01
         - -1.6607448586042445e-01
         - 6.1930825540960719e-03
         - -2.5262260384729712e-01
         - 3.4918800819213486e-01
         - 6.4848305242001691e-02
         - 1.3246811823048221e-01
         - -2.8873138229783840e-01
         - 2.1673411087747638e-01
         - 1.6113860611894426e-01
         - 7.2956072974744823e-02
         - 9.8186350674677028e-02
         - -4.5775663124860866e-01
         - 3.5723677377443552e-01
         - -4.6386224756293053e-02
         - -3.0980742906086950e-01
         - -9.6774432576650485e-02
         - -3.2124556744811447e-02
         - -1.6566282448907593e-01
         - 7.3084864981385667e-02
         - -1.2267809721395578e-01
         - -9.0740672787236173e-02
         - 1.1062886156906863e-01
         - 2.3744848260197141e-01
         - 2.6950527053975226e-01
         - -2.1323980903826475e-01
         - -1.9587033247092192e-01
         - -5.6799695993495623e-02
         - -1.1130493075767670e-01
         - 1.0473415193523884e-01
         - 5.6972340733736970e-01
         - -3.2735858309649224e-01
         - 1.3816232988824467e-01
         - 1.0074181138624153e-01
         - 3.2305779426581666e-02
         - 1.3845038873680998e-01
         - 9.0528632045681817e-02
         - 2.7322994449851162e-01
         - -1.5801139804456021e-01
         - 1.3474490517530562e-02
         - 2.8143427727605486e-01
         - 4.2425974257220211e-01
         - 1.2598402746252983e-04
         - 5.1925454571648891e-03
         - -2.7297488993724379e-02
         - 2.6830811300550644e-01
         - 2.5310661588536783e-02
         - 4.7556853585791525e-01
         - 3.3571178167118909e-01
         - -5.5728974005368449e-02
         - 3.6221603756557164e-01
         - 2.7026469363826433e-01
         - 2.0140342276170503e-01
         - 7.7464358732338834e-01
         - -2.4273675891684632e-01
         - -2.6849126005853846e-01
         - -3.0937872130113869e-01
         - -3.6465367201031029e-01
         - 3.8603512202542190e-01
         - -9.7794065879194592e-02
         - 4.3827751901303620e-02
         - -5.0643116863408014e-02
         - 5.4992893692275546e-01
         - 1.3183256037259744e-01
         - 4.5289264272577734e-01
         - -6.9013176939749912e-02
         - -3.0833381006190574e-01
         - -1.6603771483248816e-01
         - -3.0765460110290460e-01
         - -3.6517912712247275e-01
         - -2.8135688886855453e-01
         - -6.9946352453758312e-02
         - -1.4429271181850126e-02
         - -2.4185961811413595e-01
         - 1.1253409308122278e-01
         - -1.5822510306375229e-01
         - -2.8947272115266831e-01
         - 7.4245094969010481e-02
         - -2.0438337290695258e-01
         - -2.8098220236229621e-01
         - -1.7543014778461119e-01
         - 1.1978209552031278e-01
         - -1.8350052879678053e-01
         - -6.0250391697964001e-01
         - 3.1027015959283399e-01
         - -3.1963360778844990e-01
         - 5.4606893538268719e-01
         - -8.1264231289469774e-02
         - 2.4696932148266201e-01
         - 3.3821019773117167e-01
         - -5.8473847288348668e-01
         - -7.3639602792408138e-02
         - -3.5818668349869365e-01
         - 2.0949860988130403e-01
         - -3.9844716003869723e-01
         - 1.6036182494056545e-01
         - -4.3600021074534583e-02
         - -2.9056145105415199e-01
         - 4.3681465529442121e-01
         - 2.5732410119042637e-01
         - 3.3179602711427975e-01
         - -5.1259223832513179e-01
         - 4.0265832703945120e-01
         - 4.9247476100391574e-01
         - -1.3985456458611506e-01
         - 8.7749651956093883e-02
         - -4.1160757920183427e-03
         - 2.0802913662092445e-01
         - -1.2242303763833522e-01
         - 4.5105647255059378e-01
         - 2.2111521259271074e-03
         - -8.3476985903499917e-02
         - -1.5495407930058575e-01
         - 2.6119442070444288e-01
         - 6.6849774762241347e-03
         - 5.4703620246962834e-02
         - 1.8372387289355752e-01
         - -5.5312671188858561e-02
         - -3.1289660042257572e-01
         - -5.5909783064942720e-01
         - -3.9413800987951275e-01
         - 1.7973238567253721e-01
         - -2.8472325961107869e-01
         - 1.8556932187485875e-01
         - 3.9094111947240190e-01
         - 3.7946855027904593e-03
         - 5.1127385017279217e-02
         - 2.4889247154630567e-01
         - 2.7519322958397924e-01
         - -1.5462309577110878e-01
         - 3.1028538721729337e-01
         - -4.9758184362751479e-01
         - -4.4095775956407574e-01
         - 3.3061695148501907e-01
         - 1.8915785089555975e-01
         - -9.0763262523259766e-02
         - -2.9858663894491899e-01
         - -9.7290397937536688e-02
         - -3.0977808288748427e-02
         - -3.2520028286557312e-01
         - -2.7193123495210880e-01
         - -1.2442025809678442e-01
         - 1.7389717011732278e-01
         - -1.4993731181139536e-01
         - 7.5282353585409759e-02
         - 2.1209811636125200e-01
         - 2.4147995822016791e-01
         - 1.3753646970869995e-01
         - 4.5036616784363361e-02
         - 2.2143246683098913e-01
         - 4.0571942224821306e-01
         - -4.9919858406659118e-01
         - 2.9029251587655645e-02
         - 3.2188470539538749e-01
         - -2.6986167345875473e-01
         - -3.0956436437831053e-01
         - 1.4370102025414683e-01
         - 5.0631054806670961e-01
         - 6.5988788630274688e-03
         - 1.5537696411917579e-01
         - -3.0814142014368268e-01
         - 3.1867561351872248e-01
         - -3.2007078274613293e-01
         - -4.4721686896233952e-02
         - -2.7210010430088127e-01
         - -2.2992359418744127e-01
         - 2.7230344410966034e-01
         - -3.0574423541702916e-01
         - 9.3792907546436308e-02
         - 2.8868517989812914e-01
         - 1.9901919526470221e-01
         - -6.3909722733306376e-02
         - 2.9570142167470681e-01
         - 2.7517791896503396e-01
         - -1.5077384597713220e-01
         - -1.5425447935868691e-01
         - 2.3250046333273791e-01
         - 2.0373751869426251e-01
         - 4.5673333580163045e-01
         - -1.8844670779119188e-01
         - -4.5185085953142573e-01
         - -1.6974955895887153e-01
         - -4.3114245527525435e-01
         - 9.0281008001269314e-02
         - -1.5628638003994480e-01
         - 1.8778167955771635e-01
         - 7.5904740724130268e-02
         - -4.3871456614171400e-01
         - -3.9342966626670833e-01
         - 5.1905870152589406e-01
         - -1.6255074870917927e-01
         - 5.8245825484477785e-02
         - 2.7847060922018274e-01
         - 4.5402606574739615e-02
         - -7.6665857005864024e-01
         - 1.1302258162414883e-01
         - 2.4538018370289538e-01
         - -3.0545791394776906e-01
         - -1.5910328301446819e-01
         - 3.1722206968927469e-02
         - -4.8072853270231378e-02
         - 7.5327581728501081e-01
         - 3.3150995445152975e-01
         - 1.0237163145975658e+00
         - -2.4256712989119386e-01
         - 9.3205867766808254e-02
         - 4.4533859963165839e-01
         - -2.1368600120328496e-01
         - 4.7645202121655142e-02
         - 5.8028044081267760e-01
         - -2.5074253133179947e-01
         - -2.4702356829095554e-01
         - -2.6104800036902154e-01
         - 2.0370453427777777e-01
         - 4.2521498874477826e-01
         - -2.8840944198308149e-01
         - 2.2678414282709949e-01
         - 4.4534245454287674e-01
         - -9.0903883365258925e-02
         - 5.7762344569617374e-01
         - -1.1939175635956702e-01
         - -5.8592118348149513e-01
         - 1.5031487706515242e-01
         - 1.2204569973920294e-01
         - -4.4937857496733603e-02
         - -2.3755924972219060e-02
         - 1.0179591806934103e-02
         - -1.2395560027801342e-01
         - -1.0157248730338049e-01
         - 1.7054818328345555e-02
         - 3.1285593142937503e-02
         - -6.4824896389429632e-01
         - -2.3215920646794444e-01
         - 3.5793539908328231e-02
         - 5.6196750230889925e-01
         - 5.0997854405874440e-03
         - 4.7671665477098731e-02
         - -9.6815298718942844e-02
         - 1.8487951932911409e-01
         - -7.2586248304145784e-02
         - -2.3786263281008196e-01
         - -6.0902174373375950e-01
         - -4.5567382921646110e-02
         - -2.0568384627538050e-01
         - -3.3657737808329116e-03
         - -7.4381819695604909e-02
         - 1.7936670533014348e-01
         - -6.5815114905810324e-02
         - -1.5148041246470812e-02
         - 1.9084761887654095e-02
         - 1.2643392890626998e-01
         - -5.0724119997378092e-01
         - 2.9881907272141195e-01
         - -3.3239186759827860e-01
         - -2.4821572562947611e-01
         - -1.4845255072698244e-01
         - 8.3274379550987140e-02
         - 2.9615207982671232e-01
         - 3.0160899139303987e-01
         - 1.1893086635974016e-01
         - -2.6025192342051646e-02
         - -1.4351184014123297e-01
         - -1.7526970461433877e-01
         - -1.8645515472415916e-01
         - 2.1293549535956588e-01
         - 2.7506235795390110e-01
         - -1.2395309380035185e-01
         - -1.8116103150368587e-01
         - 1.5649574738138808e-01
         - -3.3384807969177713e-02
         - -2.7767918826080457e-01
         - 5.6363477066046330e-01
         - 1.2022459072048591e-01
         - 4.7289185689699191e-02
         - -2.3812142919119011e-01
         - -2.6658569239257631e-02
         - -1.7361182637973444e-01
         - -2.4101081563745538e-01
         - 1.2264031971271794e-01
         - 2.0469780770076468e-01
         - 5.7749554093407218e-01
         - -2.8646066116901420e-01
         - 3.0808372719854704e-01
         - -1.2728532294699219e-01
         - 1.2679617726522313e-01
         - 3.9241198605360739e-01
         - 3.6342324300148658e-02
         - 3.5345200923980064e-01
         - -1.9430398652424630e-01
         - 2.6157117732765578e-01
         - 4.8653867112609983e-01
         - -3.0678698889310774e-01
         - 2.3315084497408828e-01
         - -3.8055138751611317e-01
         - 3.7687169459185932e-01
         - -3.6078873108596909e-01
         - -1.3244079781540319e-01
         - 2.6390279204893979e-02
         - 3.0925432548457649e-01
         - -2.2808279104085578e-02
         - -1.0050791223618474e-01
         - -2.4321856878230258e-01
         - -1.8090629083763046e-01
         - -7.0035261866317880e-02
         - 1.9133741602701398e-01
         - -1.3304335001877943e-01
         - 4.9356562850224918e-02
         - -1.2285720966224709e-01
         - 2.9526751005911600e-01
         - -9.1552228573032496e-02
         - -2.3220409845523199e-01
         - 3.7186749377870074e-02
         - -3.3744764492601492e-01
         - -2.2324219669014139e-02
         - 4.4070518768716031e-02
         - -4.1765538106541197e-02
         - -1.6525122275786600e-01
         - 2.5557022418423042e-01
         - -2.3849061767451864e-02
         - -2.3790180716651793e-01
         - -3.3898308451473536e-01
         - 1.7314231855609122e-01
         - -1.7872427945646110e-01
         - -1.3345720493424418e-01
         - 1.0106956731319162e-01
         - -2.7338499475405950e-03
         - 5.4417313429701341e-03
         - -2.5423294761098852e-01
         - 7.3597682646174570e-02
         - -4.0948610240524340e-02
         - 4.3398166450776299e-01
         - -2.0007235400822368e-01
         - 3.4865405562163543e-01
         - -2.2201845199870743e-01
         - -2.4587924373695286e-01
         - -1.1085666530764408e-01
         - -5.6409017938696127e-02
         - -3.8234639192645553e-02
         - 1.7262277528709394e-01
         - -1.6318862362108549e-01
         - 2.4306743175775103e-01
         - 1.2305198568301549e-01
         - -2.4210304910940850e-01
         - -2.4489308669464796e-01
         - 6.0758406969957775e-02
         - 2.4614458848068521e-01
         - 1.7238005924237099e-01
         - 4.0123530026749299e-01
         - 3.0045094556436763e-01
         - -5.6729476968706586e-03
         - -3.2021785860713754e-02
         - 5.7350273288429687e-01
         - -2.2782999987447949e-01
         - -2.4223242364227984e-01
         - 3.3632234609518163e-01
         - 1.3774563325937750e-01
         - 4.6187938971546660e-01
         - 5.1533924138845333e-01
         - 2.2680342364988906e-01
         - 2.9751003980527169e-01
         - 3.6034874078836598e-01
         - -3.9697679604425579e-01
         - -9.3473436949039423e-02
         - 8.6874326563389748e-01
         - -2.4426932936978141e-01
         - 3.7653571342662134e-01
         - -5.9043126163400805e-01
         - 3.7030772436900672e-01
         - -5.8108588870324607e-02
         - 2.9836450334394671e-01
         - -5.9022089343090244e-02
         - -6.0586905293602789e-01
         - 4.1313629479052894e-01
         - -1.2981762030503182e-02
         - 4.1016530449103622e-01
         - -3.1164193342934970e-01
         - 1.9696506732036423e-01
         - 2.3368233644228967e-01
         - 4.4840852955456484e-01
         - -1.0929081800883747e-01
         - 3.8906401604307100e-01
         - -1.2142731225429125e-01
         - 8.0441598069968334e-01
         - -2.0303123757634514e-01
         - 4.4187913928921102e-01
         - -1.5709581152677249e-01
         - -6.0752029846522515e-01
         - 1.6228406157903083e-01
         - 4.0457663567636332e-01
         - -2.6074653710357992e-01
         - 3.7432313690662816e-01
         - -1.6534206338104396e-01
         - -3.9581152950965542e-01
         - -5.1442586687376679e-01
         - 2.2364981549354529e-01
         - 1.9721369795237689e-01
         - 1.8430440841675749e-01
         - 5.1935660730448463e-01
         - -1.7022145719764595e-01
         - 3.7035133972536688e-01
         - 1.8246235484157342e-01
         - -2.9208508857332111e-01
         - 8.1902077079254204e-02
         - -4.0708045465098230e-01
         - -2.1285856072667769e-01
         - 1.3138687609529551e-01
         - 2.2988794426361195e-01
         - 2.5767380657530348e-01
         - -5.1754128652518616e-01
         - 3.5913008845472877e-01
         - -2.2481985745115191e-01
         - 2.0803935876181121e-01
         - -1.8868735762421820e-01
         - 2.8342025048683328e-01
         - -2.2492974223450776e-01
         - 4.7753012397873822e-02
         - -2.2635097170875029e-01
         - -1.5006204594416533e-01
         - 6.1352848104778668e-01
         - -2.0207699499183293e-01
         - -6.3811818178620960e-01
         - 4.7969061524233669e-01
         - -1.9274745611543104e-01
         - 2.1256135789416566e-01
         - -1.1255853812354351e-01
         - -1.8974894201295428e-01
         - 1.3282343038388131e-01
         - 1.3129810516508530e-01
         - 4.2225552034616098e-01
         - -1.7429019503093923e-01
         - -3.3749867667764533e-01
         - 8.5665579247277052e-02
         - -2.3134050863594485e-01
         - 1.5975545832708504e-02
         - -1.5824830982966562e-01
         - 9.1593026273247280e-03
         - 3.1310992435024809e-01
         - 6.2897398631203680e-02
         - 1.6550672241825645e-01
         - -2.1501842838743876e-01
         - 2.8321434518359478e-01
         - 3.4374808450666156e-01
         - 3.9832944727599651e-01
         - -2.3368251068449197e-01
         - 6.0788254207290129e-02
         - 3.8134033340022588e-01
         - -2.4310276860996871e-01
         - 3.3022497227916858e-01
         - 1.2110612003373124e-02
         - 8.2153079028459280e-02
         - 3.2948173062691383e-01
         - 1.0599243169660753e-01
         - -2.8816151535642470e-01
         - 3.9384810587428193e-01
         - -6.0773457858400763e-02
         - -3.6610262912377672e-01
         - -3.6714371477732660e-01
         - 3.4637955347194399e-01
         - 2.7110096095828667e-01
         - 1.3375592401408568e-01
         - -3.5911476821871333e-02
         - 1.4029972652795228e-01
         - -2.8613356058788036e-01
         - -2.4459032842616409e-02
         - -2.3202663635420676e-01
         - 1.6627252072169169e-02
         - -3.2347878096153787e-01
         - -3.4272474318818524e-01
         - 3.2131053532503800e-01
         - -3.3764046345459103e-01
         - 1.0216781629941124e-01
         - -3.8786519042068324e-01
         - -1.3860180521996585e-01
         - -3.1448055822457538e-01
         - -2.4136590580019437e-01
         - -4.0090170759041539e-02
         - 2.7317211871803106e-02
         - 1.4558022208886828e-01
         - 3.4965621501766275e-01
         - -3.7462316675487835e-02
         - -2.6127857312345185e-02
         - -1.9274525089600364e-01
         - -9.1909909122548164e-02
         - -1.4104040511187740e-01
         - -1.8566034021653399e-01
         - -2.9965871033522185e-01
         - 2.5278938187757310e-01
         - -2.2348906167562833e-02
         - 5.8952980159545065e-01
         - -2.3550366506061426e-01
         - 3.9501842561397926e-01
         - 2.0231562601552018e-02
         - 2.9929689348548100e-01
         - -3.2440368106680140e-01
         - 1.9288946047079947e-01
         - 1.5447064449887121e-01
         - 2.1849208924779870e-01
         - -3.5693257821693684e-02
         - -5.2125104927834452e-03
         - 1.7211324544665038e-01
         - 3.4642273156434911e-01
         - -3.1318508547082638e-02
         - -2.4375082907941638e-02
         - 1.8607695533384358e-01
         - -1.9601355034112047e-01
         - 7.5872001151895879e-02
         - -3.0176871219870036e-02
         - -1.9025632250920083e-01
         - 2.2046733711699953e-01
         - 1.7870169350182430e-01
         - 2.6335868174305610e-01
         - 1.2255348928668425e-01
         - 2.0409984736827005e-01
         - -2.3460376105995582e-02
         - -4.1676045969906433e-01
         - -1.3006834555992369e-01
         - -2.5721441533017531e-01
         - -1.6229612490995901e-01
         - 3.3112845248007627e-01
         - -5.2569102923011790e-01
         - 3.3034384800595845e-01
         - -1.1041487804943256e-01
         - -2.0412691127469709e-02
         - -2.2659959980071542e-01
         - -2.6408699613265757e-01
         - 1.5165546473197158e-01
         - 6.9254724794543338e-02
         - 2.4066355517184840e-01
         - 4.3992414128236129e-01
         - 9.8823776553618362e-02
         - -2.1398284664454981e-01
         - -2.9881107701459708e-01
         - 1.7122474493379175e-01
         - -1.3841805933098522e-01
         - -4.8144059157095187e-02
         - 1.8387507769137607e-01
         - 2.4323893503122373e-02
         - 6.0865414195284878e-02
         - 6.6242992587794258e-02
         - 1.7669796796349679e-01
         - -3.1568647293486002e-01
         - 1.6610804254279224e-01
         - 4.4980483289244461e-01
         - 5.8898251060045370e-02
         - -9.3520575786931370e-01
         - 3.3837903030361760e-01
         - -3.7242203679160563e-01
         - 1.9547584878197452e-01
         - 2.1066469825871853e-01
         - 7.1019411077948558e-01
         - 2.8464829836876515e-01
         - 1.1139693236012796e-01
         - -2.1581016847833920e-01
         - 1.9211070204059810e-01
         - -5.3783705946495924e-02
         - -2.5718071044695373e-01
         - 7.5151719771460734e-02
         - -1.7854780905026238e-01
         - 1.9331885056546541e-01
         - 3.2175349454441021e-01
         - -3.2407370724055523e-01
         - -3.3179606966390529e-01
         - 3.5824463183217685e-02
         - 1.8741725413781712e-01
         - 2.5207893360484057e-01
         - 1.7513212367053343e-01
         - -4.3045976662843538e-01
         - 7.7633932763168503e-02
         - -2.3612169113259573e-01
         - 3.2049029935229861e-01
         - 1.5911759148196508e-01
         - -4.2538335523547362e-02
         - -4.4005503895356429e-03
         - -1.3381279132790624e-01
         - 1.9319156340257185e-01
         - 1.5586516668198488e-01
         - 2.7957826133825370e-01
         - 6.2902758023028207e-02
         - -1.6570870246065572e-01
         - -8.6205103261376759e-02
         - -9.2798056243979417e-03
         - -1.7667774493691649e-01
         - -2.8556358224338002e-01
         - 1.9644405200749593e-01
         - 3.9247415140016492e-02
         - -1.0116869974667149e-01
         - -3.4740379468974604e-02
         - 8.4062268213750388e-02
         - -5.7730933489261144e-02
         - 4.5335561182243661e-02
         - 1.8048674924522659e-01
         - 4.3903442846438996e-02
         - 4.4366511584801559e-02
         - 2.2424241663080110e-03
         - -6.0403760233552123e-02
         - 2.1426609850124614e-01
         - -1.0515478451505879e-01
         - 1.0958601025776924e-02
         - 9.3397373800861994e-03
         - 2.8118521725578025e-02
         - -8.5349996514170370e-02
         - 2.1856339760615390e-01
         - 9.5984625494388007e-02
         - 1.2338188867390769e-01
         - 1.8810892137157631e-01
         - -1.3345880416862746e-01
         - 4.6376626875924143e-02
         - 2.0924700445462716e-01
         - -1.7479463760301503e-01
         - 1.1544861454509560e-01
         - -4.2554358784106006e-01
         - 3.6280641289976751e-01
         - 2.8272813621396981e-01
         - 2.2835136108342544e-01
         - 9.0607489064929686e-02
         - -1.5674483168201836e-01
         - -1.1452757280930832e-01
         - 2.1980199197351131e-02
         - -5.2563989763556800e-02
         - 2.9587697462391144e-01
         - 2.0614951530830078e-01
         - 1.6131545250595800e-01
         - -2.5600387525098972e-01
         - 3.3150781609733715e-01
         - -2.9822487151217247e-01
         - 5.1426017654141765e-01
         - -5.2210022971467596e-01
         - -2.7619296550080186e-01
         - 1.0581620726407949e-02
         - -1.3175596618620011e-02
         - -7.1108487519730521e-02
         - 3.4524252697851465e-01
         - 3.0474865985650501e-01
         - 8.9297843261714485e-02
         - 1.3614016104213345e-01
         - -6.7315862197618337e-01
         - 4.0420872843638567e-01
         - -6.5883769290007821e-01
         - 5.7763008634946944e-01
      -
         - 3.6564119498590807e-02
         - 1.2127804188130226e-02
         - 4.8446847408878412e-04
         - -8.2640433179216807e-03
         - 2.2719462241870915e-02
         - -4.6988505427172783e-02
         - 1.9713779279085419e-02
         - 9.3269315910501277e-02
         - -7.2154679762418905e-02
         - -3.1618433252320978e-02
         - 7.4319243300772858e-02
         - -1.4720588042607769e-02
         - 6.5727585611501257e-02
         - 6.3870597641738441e-02
         - 1.2549776323233043e-02
         - -4.2195713524756588e-02
         - 2.2245151100054258e-02
         - 3.3248396728242341e-02
         - -1.2544174893827381e-01
         - 4.2977295383050104e-02
         - 4.9407204290381167e-02
         - -6.5527956956725433e-02
         - -2.6589702787440626e-02
         - 2.0132509319463585e-03
         - -1.2900866831595708e-02
         - -1.3817795140419808e-02
         - 7.5861574906059631e-02
         - -9.6796599399513756e-03
         - -1.9723731755221442e-02
         - -1.5782706626921085e-02
         - -1.1260411759225288e-01
         - -2.3009805671440963e-02
         - -6.0050742205049176e-02
         - -3.5943143376290253e-02
         - -4.0277755208923396e-03
         - -1.5641477048351288e-01
         - 3.2340021960113090e-02
         - 8.1319422510537948e-02
         - 4.2631708553453433e-02
         - 4.7880128998477670e-02
         - -6.7834086212199052e-02
         - -4.6167207937573326e-02
         - 2.8093111174826272e-02
         - -4.3417895184390237e-02
         - 9.7451282790214991e-02
         - -2.1890094956363741e-02
         - -5.0261814349982980e-03
         - -1.1061368625269475e-02
         - 4.9687917775318377e-02
         - -1.6622754967767325e-02
         - 2.1973230066734222e-02
         - 2.2484855489945988e-02
         - -4.9532880416214280e-02
         - -6.7311107198937126e-02
         - -5.7089751905236033e-02
         - 3.0403944135150934e-02
         - 5.8868141387199403e-02
         - -7.4642916658990685e-02
         - -4.4684203627150761e-02
         - -4.6879147872285053e-02
         - 5.2928293766194449e-02
         - -6.4528576161570192e-02
         - -4.6841595361528439e-02
         - -1.0392693454106605e-01
         - -6.6069815135567672e-02
         - -9.6572564411622916e-02
         - -2.4785960794751819e-02
         - -2.0610632064449273e-02
         - 4.3469125432597034e-03
         - 2.0138855913970504e-02
         - 1.9494120492405054e-02
         - -9.0414204652186046e-03
         - -4.0973763272106516e-03
         - 1.1416425612168830e-01
         - 1.2227302261501255e-02
         - 4.6147058128009351e-02
         - 3.7845569074574301e-02
         - 5.9566265507183809e-02
         - 6.4173354079321177e-02
         - 2.9823700985418863e-02
         - 9.4616709791679438e-02
         - 5.4363891301183631e-02
         - 1.0202695285872872e-01
         - 1.8539591271330896e-02
         - 3.3447533570115588e-02
         - 1.1384452547127603e-02
         - -6.2293495054891151e-02
         - -1.0214128859282386e-01
         - 2.8506544766913396e-02
         - -8.5811792377212912e-02
         - 5.5239416345044270e-02
         - -5.5355160290273632e-02
         - 1.7033185591120450e-02
         - 3.3804842779718493e-02
         - 1.8494933718172603e-02
         - 6.0672808657185134e-02
         - -7.3242379642020341e-03
         - 3.2629858469348003e-02
         - -2.2624289794889015e-02
         - -3.0285686228517864e-02
         - 1.1917823618952095e-01
         - -8.3482801681633079e-02
         - 1.1068741072813416e-01
         - 3.0969226081180270e-02
         - -1.0113324567395415e-01
         - 5.4001435228636104e-02
         - 3.0172917687637052e-02
         - -1.1921879637049977e-02
         - -7.4463073384691523e-04
         - -1.9907858658610906e-02
         - -1.5101932592533671e-01
         - 6.1024878044281368e-02
         - -4.4266253170026880e-03
         - -1.2473914471858348e-02
         - 6.7883962121156174e-02
         - -1.8274495617030275e-03
         - 4.0904145371343036e-02
         - 6.3940274107315469e-03
         - -8.6175527331219387e-02
         - 2.0484745780572945e-02
         - 1.2755511260353316e-02
         - -2.0264896879421738e-02
         - -2.8841742958906635e-02
         - -6.0381928372851062e-03
         - -4.6869904187708436e-02
         - 7.9902236621633246e-02
         - -6.5532542994227394e-02
         - -2.1556723564661134e-02
         - -4.8005031443960032e-02
         - 1.2312803761421296e-02
         - 2.3194671530424357e-02
         - 8.4035368726365633e-03
         - 1.4971553529972056e-02
         - -1.2593176773618112e-02
         - -6.2844806564688022e-02
         - 9.0998340923248447e-02
         - 1.2141980826733595e-01
         - 4.1643589222323729e-03
         - -7.9053621710521799e-02
         - 4.3718781350999610e-02
         - 7.1773505377450503e-02
         - -1.6685042312787456e-02
         - -2.0260401700147587e-02
         - 4.2821175731359351e-02
         - -1.3537317696986433e-03
         - 3.0027728593203216e-02
         - 2.1042527065158317e-01
         - -1.3114902806786033e-02
         - -2.9186090083190827e-02
         - -8.6119549603558193e-02
         - -5.3172095572759266e-03
         - 8.2624571743221426e-03
         - 2.2582396040680613e-02
         - 6.9661161771553091e-03
         - 5.3063387335622932e-03
         - 3.3600922924048364e-02
         - -5.3082496733298484e-02
         - 1.3929586829702299e-02
         - -5.5796879707884467e-02
         - -4.3436693585947865e-02
         - -2.8498606710179349e-02
         - 1.3667366189611308e-02
         - -1.2113582370346107e-01
         - 5.7949579871503752e-02
         - 3.1005835945953315e-02
         - 7.3010918834415753e-02
         - -1.0641904685315426e-01
         - 3.1162341089261799e-02
         - -1.2495993968401720e-01
         - -1.8000872153947883e-02
         - -7.7710519608600913e-03
         - -3.1680563419943859e-02
         - -5.8773989541556167e-02
         - 1.3161236341772228e-01
         - -7.1806026363613940e-02
         - 6.0613202847763926e-02
         - -2.2520391842860789e-02
         - 6.7873809817519219e-03
         - -1.8286565139506085e-02
         - -4.8850158180192456e-02
         - 8.5690403523922112e-02
         - 1.0455313432391802e-01
         - 6.3447376276491788e-02
         - -7.1188406893497619e-02
         - 6.4949843407150945e-02
         - -8.6720879584409563e-02
         - 2.2281524849251319e-02
         - -1.9478981071327502e-02
         - -1.1472588407152554e-01
         - -2.0492837775419118e-02
         - -5.6559715047172721e-02
         - 4.5069628374277200e-02
         - 3.9977775411600885e-02
         - -4.9104218782370215e-02
         - -3.5977932983202975e-03
         - -1.1217504552771190e-02
         - -1.4635191814241957e-01
         - -4.7317234291340354e-02
         - 3.5674365406414756e-02
         - 3.5330857566279406e-02
         - 1.8830718033483941e-02
         - -8.1488697329083010e-02
         - 1.0551782136886380e-01
         - 1.5084746044988190e-01
         - 1.4278023197228729e-02
         - 4.2694828274689463e-02
         - -1.5053797317270792e-01
         - -1.1966317068695605e-02
         - 1.6065013221598440e-01
         - -9.9593474363233681e-02
         - -1.1371675517834773e-01
         - 4.7190354367791426e-02
         - 1.6687030706768552e-02
         - -4.5360155023165573e-02
         - -6.0582974281090100e-02
         - 1.0188116299633914e-02
         - 7.6125280686261815e-02
         - 1.8117715612665781e-03
         - -9.1091446085049765e-02
         - 1.2503661121901305e-01
         - -4.2734533680617103e-02
         - -2.0743615385378320e-02
         - -4.8434927581307033e-02
         - -1.0808959480648364e-01
         - 9.7952478326093773e-02
         - -7.5812962304934325e-02
         - 8.2017935737307757e-02
         - -1.8734043859635077e-01
         - -8.5587810421247409e-03
         - -6.3966583164444021e-02
         - 3.9216943770471170e-02
         - 4.7444185942116524e-03
         - 4.6337489885207465e-02
         - 5.4432581727956807e-02
         - 9.1516517838707030e-03
         - -9.7194417892664271e-03
         - -3.1733752202508160e-02
         - 5.8509649222493833e-02
         - 2.7931559954282065e-02
         - 4.8548224879094222e-02
         - -4.1527131939741044e-02
         - -8.2754992619056320e-02
         - 9.3062352530628695e-02
         - 2.7473856872330976e-02
         - 2.0639404137069321e-02
         - -6.5815670435049226e-02
         - 1.1896403206811973e-01
         - -7.5527460864337662e-02
         - 2.1037902258099303e-02
         - -8.1653414366619787e-03
         - 1.6150649746095713e-01
         - -7.2951428312075031e-02
         - -1.1556708114850991e-01
         - 4.5122959562757855e-03
         - -4.9454384808457305e-02
         - -5.7635940099271560e-02
         - 1.3390130518580690e-01
         - 5.9216434428252029e-02
         - -1.1884329294336989e-01
         - 9.1322455169522039e-03
         - 1.7137785706367915e-02
         - -7.3939143767758023e-02
         - -4.0408456560595787e-02
         - -2.5954658371704818e-02
         - -5.7333336572279445e-02
         - 7.0747236234646710e-02
         - -4.0013325804051848e-02
         - 9.4119374446313929e-03
         - 3.4715103726360254e-02
         - 2.4342203351669343e-02
         - -5.6267857898899661e-02
         - -5.7184845880696299e-02
         - -1.0101369240107261e-01
         - 1.4658169327033735e-01
         - -2.0903291959502898e-01
         - -1.8645550527093414e-03
         - 4.2866059325235600e-02
         - 9.5637947138052348e-02
         - -6.5393902109632334e-04
         - 4.1633900197234355e-02
         - -3.1565370301294506e-02
         - 5.1611717565489004e-02
         - 8.3329172847094637e-02
         - 3.1771097005699869e-02
         - -6.1256338284495088e-02
         - -9.3182418281033214e-02
         - -4.2232165511958152e-02
         - -3.8959601078195315e-02
         - 4.2634887914904149e-02
         - 5.8354581022684399e-02
         - -9.1916002882859907e-02
         - -3.7044400589331832e-03
         - -8.2626696379243178e-02
         - 6.9054463996452251e-02
         - -1.9287288247841088e-02
         - -6.5862999212548304e-02
         - -4.6402830423533055e-02
         - 3.3699828140306698e-02
         - -5.8247758718491449e-03
         - -3.1515502012261901e-02
         - -6.5679880528783346e-02
         - 2.6193434076514269e-02
         - -8.5183276636724745e-02
         - -5.8248445695754852e-02
         - 3.6235830413551218e-02
         - 5.3637074689657803e-02
         - 7.6059701596318044e-02
         - 3.4970598906648644e-02
         - -3.1594011760388459e-02
         - -8.5365233757269343e-02
         - 2.4404592867790276e-02
         - 1.1580553550523562e-01
         - -1.0567385134892823e-02
         - 3.3709044255634986e-02
         - -1.7774416058583452e-02
         - -5.3432909682187960e-02
         - 7.6012591775576352e-03
         - 1.1553016831460738e-01
         - -1.6126007327213726e-02
         - 6.6313398618041142e-02
         - -1.4115016972731660e-02
         - -7.6881568200906386e-02
         - 3.7059039251120696e-02
         - 1.5625904706216176e-01
         - -5.3513509194276991e-02
         - -7.3235034738296069e-03
         - 4.3158894427794588e-02
         - -8.0180639576235627e-02
         - 3.5850105130536956e-02
         - 3.2495265352000181e-02
         - 1.7092630282216491e-02
         - -7.3367114011910303e-02
         - -7.3623819761543141e-02
         - 3.1996159146336980e-03
         - 2.5708837631930648e-02
         - 2.5882440710436716e-02
         - 1.4170650213170700e-02
         - 1.7880231466991907e-02
         - -7.1500598757432490e-02
         - -4.3568363889722565e-02
         - -7.8482862560956532e-02
         - -6.8061907961241341e-02
         - 5.5031887665757402e-02
         - -4.4639322316839140e-02
         - 8.4260165141331680e-02
         - -1.3428067085714540e-02
         - -9.5192478811039968e-02
         - 1.1859971223864779e-01
         - -1.0523384882724116e-01
         - 6.8944605143575408e-02
         - 4.3230976947138379e-02
         - -2.6694627382429382e-03
         - -3.5603923810992401e-02
         - -2.5442560384074105e-02
         - 9.0726083045176223e-02
         - -9.2324838526818623e-02
         - 8.6431888821373648e-02
         - -1.0713672609870607e-01
         - -6.1928025557678117e-02
         - 1.0783687186311518e-01
         - 1.9809052553551665e-03
         - 7.6520478316754514e-02
         - -4.4826755504915571e-02
         - -6.8859099087206915e-02
         - 2.1444287555498525e-02
         - 1.3695193990150714e-01
         - -2.1709985139952606e-02
         - -8.5017183947927982e-02
         - 5.9747025340445153e-02
         - -1.3178185170794179e-01
         - 1.8199171570758232e-01
         - -1.8074799831197752e-02
         - 5.7676518483162006e-02
         - 2.9261672679918076e-02
         - 1.2104396497713965e-01
         - 7.7678400835782292e-03
         - 6.5825150318408410e-02
         - 4.6830071398579101e-02
         - 1.0275874369052095e-01
         - 1.5593221051452213e-01
         - -4.5488854889078291e-03
         - -1.1561404945486137e-01
         - -5.7572572382375189e-02
         - -8.3049996157051123e-02
         - 6.7616745208993523e-02
         - 2.4493157074058112e-02
         - -5.8514614638676542e-02
         - -2.1887186670416565e-02
         - -4.1378260535970955e-02
         - 1.0193136551769508e-01
         - -2.7195229762462327e-02
         - 2.6210825218675328e-02
         - 2.1995157810472888e-02
         - 4.2439559196425343e-02
         - 1.4804413048624832e-01
         - -2.3118007345268816e-02
         - -2.7214911906544632e-02
         - 3.7406327061806674e-02
         - -7.4855347037391995e-02
         - 1.9277808369976831e-02
         - 1.9874880095057109e-02
         - -9.6717170050992368e-02
         - -9.4708324003485080e-03
         - 4.8367186494253520e-02
         - 2.2274455985901817e-02
         - -1.0075773176732786e-01
         - 4.6256502521783684e-02
         - -5.2803577485470389e-03
         - 4.9414444821745715e-02
         - -4.8832447729483433e-02
         - -8.1802936656874732e-04
         - -3.3208639502438228e-02
         - 6.8026857508942648e-02
         - 1.5203334524892233e-02
         - 3.2394620463446433e-02
         - -2.7474299600212283e-02
         - -4.4086667282124958e-02
         - -2.8016846095176174e-02
         - -1.9474956131148129e-02
         - 6.1261708109611283e-02
         - -9.5860174996792169e-02
         - 1.5143116926672555e-02
         - -4.1941649589032626e-03
         - -1.6484307838839276e-02
         - 1.8206544658244259e-02
         - 1.5792430302806686e-02
         - -7.2477285650025033e-03
         - -3.4822395352369154e-02
         - -1.6012276020765015e-03
         - 3.2629155681999852e-02
         - 9.1077263712640577e-02
         - -6.9810666232270932e-02
         - -4.5921765757665607e-02
         - 1.0040194381643254e-01
         - -1.8760970009266492e-02
         - 7.0954611826353819e-02
         - -7.7681669477928719e-02
         - -1.0773289256393496e-01
         - 8.0937539172333595e-02
         - 5.2506036649479247e-02
         - -2.8497291147969301e-02
         - 4.4256474136269403e-02
         - -5.4004049964287398e-02
         - -1.2377855059444822e-02
         - -8.9359034970045905e-03
         - -7.6967853939499953e-02
         - -5.4401251465686265e-02
         - 2.9933001662908916e-03
         - -1.5801797802913575e-02
         - 3.0368188837035286e-02
         - -3.9708164253709405e-02
         - 4.7596247918126063e-02
         - 5.2673182907654614e-04
         - -5.6975126539467541e-02
         - 2.0345834956466146e-02
         - 6.5527840366974552e-02
         - 3.9338626901005654e-02
         - -1.3992437875532079e-02
         - 4.4271429870858942e-02
         - -1.0563118846925905e-01
         - 3.6239853685849976e-02
         - 5.9429965152198387e-02
         - 4.2568411942124872e-02
         - -7.9001211275696540e-03
         - 2.2931327617909624e-02
         - -1.9554845183905344e-02
         - -3.1397941986044481e-02
         - -6.1736913200396454e-02
         - -1.0720214586233815e-03
         - -2.3070592790309333e-02
         - 2.1823967036681071e-02
         - -1.0940946249754069e-01
         - 1.2445213187211979e-02
         - 1.5526123861847490e-02
         - -3.2560122473308570e-02
         - -6.6290430285925572e-02
         - 2.8287821994056484e-02
         - -2.7893279059530048e-02
         - 3.7599575633863916e-02
         - 6.2720107698274227e-02
         - -2.7695112348789179e-04
         - -5.2194025740743617e-02
         - 7.6955139606899011e-03
         - 2.2920639609666265e-02
         - -6.4430115362346829e-02
         - 7.1677100172763547e-02
         - -3.3260080300281283e-02
         - 5.9176412034479459e-02
         - 2.8480286009689658e-03
         - 3.4383591981051981e-02
         - 3.5905933927221675e-02
         - -3.1625801639029096e-02
         - -7.1742656581040273e-02
         - 3.2365675445269110e-02
         - 6.3284494549834648e-03
         - -3.6176956051456793e-02
         - 1.2170195160809022e-01
         - 7.4446948398689608e-02
         - -7.4701844731943440e-02
         - 3.2718650268123609e-02
         - 6.0540051375256580e-02
         - 1.1585648469331920e-01
         - -2.2765913436501365e-02
         - -1.5579865312485990e-02
         - -5.6217447225026945e-02
         - 8.6463397403847453e-02
         - 8.4671715009984501e-03
         - -4.7476026827868875e-02
         - -4.2825733710346113e-02
         - 9.9504799447635656e-02
         - -8.6058886491631015e-02
         - -4.6147177209073319e-02
         - 1.2145823071514154e-01
         - -8.5303241651163972e-02
         - 1.1384584691971156e-01
         - -1.6278320046870756e-01
         - -1.7856076014538530e-01
         - -1.2396008346942652e-01
         - 8.2701418851774081e-02
         - 2.9042034246767337e-02
         - -5.2907833797407607e-02
         - 5.3570383644466153e-02
         - -1.1695478265755581e-01
         - -6.5215772529117214e-02
         - 1.6925528792943703e-01
         - -4.8595668146590693e-02
         - 3.5725138771552596e-02
         - 8.2138747153093772e-02
         - -3.0731650510237952e-02
         - -2.1732554377159076e-02
         - 6.6628331714498126e-02
         - 1.4993072105851604e-01
         - 4.8091435816065890e-02
         - 1.0595265101848210e-01
         - 2.6580849609992900e-02
         - 6.5221409107301797e-03
         - -5.8537912859278847e-02
         - 1.0885415579768853e-01
         - 2.1675013289868994e-03
         - -1.7768563774268144e-02
         - 1.7538465171947309e-01
         - 4.0957830424913695e-02
         - -1.0305247357601878e-01
         - 1.0008973979571534e-01
         - -1.6177639674316871e-01
         - -1.2464076015340386e-02
         - -1.0846778333109819e-01
         - -1.2976374834114959e-01
         - 1.4402471084968725e-02
         - -6.3941012999867666e-02
         - -1.0054449932455134e-01
         - -1.6507518464249904e-01
         - 1.2916213178817887e-01
         - 1.6720795716691281e-01
         - -7.1041246591013518e-02
         - -1.4540028269046218e-01
         - -1.0487457958500460e-01
         - 4.2112769890173284e-02
         - 8.6762306005349121e-02
         - -1.0193797949296232e-01
         - -1.5447665867639784e-01
         - -7.7986729431006735e-02
         - -2.2230512005697249e-02
         - 1.7493889794908180e-01
         - -2.1537985411322423e-02
         - -1.3426877732606498e-02
         - -9.7541466383314845e-02
         - 2.0946387181268047e-01
         - 1.2774292632126186e-01
         - 9.9330293821628196e-02
         - 1.9746571255439608e-02
         - -2.0836347745775991e-02
         - -9.3703244533068317e-02
         - -3.8305078425149103e-02
         - 1.0319306866387006e-01
         - -5.5725067971886005e-02
         - -1.7843860606059503e-01
         - -6.3320842190984758e-02
         - -1.9848413147696536e-01
         - -1.7754040676528407e-01
         - 3.8127712377205261e-02
         - 1.0153805649104394e-01
         - -1.6110626498029459e-01
         - 8.4261063915058762e-02
         - -6.4827445861958585e-02
         - -3.6443137077997033e-02
         - -6.3495443259456302e-02
         - 1.0281750626839420e-01
         - 4.6445624179685417e-02
         - -9.0624471689153344e-02
         - -3.9528519325071420e-04
         - -1.4020339185095462e-01
         - 9.9728104605395163e-02
         - -1.4573483273566112e-01
         - 5.5550616782343895e-02
         - -3.7670815475391313e-02
         - -9.5896816012432398e-02
         - -5.6320181133376369e-02
         - 1.1145047507981430e-01
         - -9.0764410957604499e-02
         - -2.2336567398696421e-02
         - 1.6405094290301691e-02
         - -7.7428512310072167e-02
         - -1.0342223979899995e-01
         - 5.5167604552713223e-03
         - -8.7791474678450016e-03
         - -9.2057398057678508e-04
         - 2.4612994203527222e-02
         - -8.6768571866822852e-02
         - -1.3555438137791367e-01
         - -2.1227477781393590e-02
         - 1.4793400380459246e-01
         - -4.8801650115372318e-02
         - -4.0274994399332270e-02
         - -3.5879022742589584e-02
         - -3.3232909679403316e-02
         - 8.4667072291518021e-03
         - 5.2831261031800414e-02
         - -7.7786748007177223e-03
         - 1.3672427609009460e-01
         - -2.7394703903420533e-03
         - -2.0986615570052355e-01
         - 1.4734025685520241e-02
         - -5.3785894580603962e-02
         - 8.3849474761225479e-03
         - -5.2795078432870714e-02
         - 7.7493059298869692e-03
         - -1.2158946940710451e-01
         - 1.2784144328840510e-01
         - 1.0681602858710305e-01
         - 7.8330783013947566e-02
         - 5.3495831891951562e-02
         - 4.7963956881626260e-03
         - -4.3026435659305487e-02
         - 1.3759534701700127e-01
         - -6.9716492520479068e-02
         - -8.3949760916008323e-02
         - -7.3730370835084949e-02
         - 2.9062809991001481e-02
         - -1.0060377514630228e-01
         - -3.2619706279698110e-02
         - -6.9295978270772718e-02
         - 1.1162141551822539e-01
         - -8.1824720334846293e-02
         - 7.9213389997240397e-02
         - -1.2113608960072221e-01
         - -9.0570988817908829e-03
         - 3.8926453999676203e-02
         - 4.6054229609042041e-02
         - -1.3496399899163940e-02
         - 4.2357013077823170e-02
         - -8.0145753947951037e-02
         - -2.5026906772182011e-02
         - -1.1226796149435348e-02
         - 8.0490567112347935e-02
         - -1.2973284761568052e-01
         - 2.4024653897899119e-04
         - -1.2524293683418400e-01
         - -3.1632873471307207e-02
         - -3.3551517435913879e-03
         - 1.6721559437627237e-02
         - -1.2607477166128292e-02
         - 4.9764858075125533e-02
         - -1.2813625558386613e-02
         - -2.3415015948568950e-02
         - -6.7133324185932014e-02
         - 1.4408803320105570e-01
         - -3.9673294176468907e-02
         - 1.6637494429016531e-01
         - -5.9123219123118749e-02
         - 9.0982879606049658e-02
         - 1.9817517408303925e-02
         - -3.4744738879094440e-02
         - 7.3851058522011112e-02
         - 7.7916295695988269e-03
         - -7.2871674620651004e-03
         - 7.3564111289568810e-03
         - 9.4789475170238661e-03
         - 1.7601074207430269e-02
         - 1.7547432954311062e-02
         - 5.0422927025632863e-02
         - -8.3790976030217561e-03
         - -5.0981182760093243e-03
         - -3.1896180265308778e-02
         - -3.8565484777712544e-02
         - -4.3136410925084620e-02
         - -1.2956504039603828e-01
         - -5.9754170819551360e-02
         - 1.7680785171091636e-03
         - -9.2533810310747977e-02
         - -1.4076268515294293e-01
         - -6.7494062817144040e-02
         - -3.0214438180431822e-02
         - 2.8675030598279364e-02
         - 8.4668856089976235e-02
         - -7.7667981791112894e-02
         - 1.6487788889182342e-02
         - 2.4547780266864952e-02
         - 5.7147662030432016e-03
         - -5.0329722726082937e-02
         - -4.7709869908267304e-02
         - -4.0344615940718136e-02
         - -6.4884243597237615e-02
         - 5.7087385874797184e-02
         - 4.3481776343746257e-03
         - 1.4197588011420294e-02
         - 1.4926852397066379e-02
         - -5.7894789366633392e-02
         - -2.8229795971407734e-02
         - 9.9200167242515916e-02
         - -7.2669242667199414e-03
         - -9.3657449201467333e-02
         - -6.8589663393519143e-02
         - 1.6368425401039471e-03
         - -1.6998055203326819e-02
         - 1.1057823698342389e-01
         - -1.5118980611743865e-01
         - -9.0144260298769430e-02
         - 7.0794311910981553e-02
         - 6.9122090928217111e-02
         - -1.0009824192188038e-01
         - 8.2285976207756309e-02
         - -1.1684525482831402e-01
         - 2.5025539758311212e-02
         - 7.8945579187061965e-02
         - -5.2582037887773110e-02
         - -5.8090305090120649e-03
         - 1.2663915380335508e-01
         - 5.3992808417606009e-02
         - 3.3629664450606873e-03
         - 2.1396293007489284e-02
         - 4.0477062818643330e-03
         - -9.9290302931762039e-02
         - -6.4142388037488660e-02
         - 5.0471447327562660e-02
         - -2.6181150871801826e-03
         - -5.6365523746663412e-02
         - -1.1525736712507586e-02
         - 2.1261684082014565e-02
         - 8.1631529241159101e-02
         - 1.0044270082131877e-01
         - 2.9981893388603527e-02
         - 1.9571894700467590e-02
         - 7.7655677645478566e-02
         - -9.0068265015285129e-02
         - -4.2681994354876310e-02
         - -3.4180240016307366e-02
         - 2.5590810287421202e-03
         - -1.7573440857630050e-02
         - -5.2894190559503930e-02
         - 2.5354826153336844e-02
         - 3.4410009544889097e-02
         - -4.0177499124890208e-02
         - -1.3893353364239015e-02
         - 1.1626112163271723e-02
         - 6.4205308305128425e-02
         - -1.1842823151157074e-01
         - 6.5281967384732298e-02
         - 9.8795620906083667e-02
         - -4.5371442001923713e-03
         - -9.7173156718836792e-02
         - 1.0186009769318610e-01
         - 2.5671051097451131e-02
         - 6.3866972245201145e-02
         - 1.9076861814537587e-02
         - -1.1540707489821920e-02
         - -1.1102361993954224e-02
         - 7.1148154234706537e-02
         - 3.6317344257903159e-02
         - 5.9087679225151651e-02
         - -1.0267024368217974e-01
         - -7.6632384338754644e-03
         - 2.7885987307969710e-02
         - -1.4753615356222244e-01
         - 1.3948434309802509e-02
         - 5.1206408516017252e-02
         - -7.0784274902219710e-02
         - -1.5932456704106474e-01
         - -4.7593998458223520e-02
         - -1.1690419421386930e-01
         - 3.0178862597533239e-02
         - -7.2540609097550730e-03
         - -9.8671276869483987e-02
         - -2.6640850249665740e-03
         - 1.4702435320929965e-02
         - 7.5903297073367668e-02
         - 6.3248679746104652e-02
         - 5.8781523807414637e-02
         - 1.1631484433759704e-02
         - 1.4191194391331933e-03
         - -7.8331808672440911e-02
         - -2.5148555623551283e-02
         - 1.4814221466508150e-02
         - -1.4612094045627825e-02
         - -1.8452494424307884e-02
         - 3.3960801408529993e-02
         - -2.4725547962331371e-02
         - -3.2670695321357517e-02
         - 1.1686685033227512e-01
         - -6.9151129616761328e-02
         - -2.9439654059483112e-02
         - -1.4029373801418626e-03
         - 2.6592125107543278e-02
         - 3.9874010176787433e-02
         - -4.2348841463135847e-02
         - 6.1103329036736299e-02
         - -1.3867013057907748e-01
         - -3.4973620875816368e-02
         - 3.9264649853592348e-02
         - 6.5839819080345460e-02
         - -7.4473200307472814e-02
         - 1.1238851201990500e-01
         - -3.2654057285408183e-02
         - -2.3758313340892571e-02
         - -1.1128782530646704e-02
         - 2.2627619170874556e-02
         - 2.2627183671846723e-02
         - 2.6701935982588652e-02
         - 9.0529530265586730e-02
         - 9.2643458512525700e-02
         - -1.1120591860822197e-02
         - -4.5540351616356181e-02
         - -4.4296425625306533e-03
         - -5.1707840895234357e-02
         - -4.8918812934708053e-02
         - 8.3912828132034697e-02
         - 4.7075263713076982e-03
         - 4.4761805750639025e-03
         - 3.4844286651340493e-03
         - 6.1027135733711768e-02
         - 1.6211263009761656e-01
         - 6.7614935937171008e-02
         - 5.0223772616417188e-02
         - 1.8795427675602838e-02
         - 1.2896809409179544e-01
         - 9.7107937661954052e-02
         - 2.8029822343363344e-02
         - -5.8594944618420755e-02
         - 9.8058818839452545e-03
         - -7.1689718491143681e-02
         - -9.2767692093487474e-03
         - -5.1506079868225939e-02
         - 3.6242444215848858e-02
         - -3.7369848262484269e-03
         - -4.2445393676642275e-03
         - -2.6154473873439995e-02
         - -5.0013013861245965e-02
         - -2.7071881319829492e-02
         - -6.8603000547583962e-02
         - 7.9612058012402676e-02
         - -6.1859333714825222e-02
         - 4.0600016435094879e-02
         - 1.3765468118729465e-02
         - 3.9048161543271148e-02
         - 2.7628630214582912e-02
         - -4.7658682683228558e-02
         - -1.0324085468511274e-01
         - -4.6784779777000393e-02
         - -4.4536426017478682e-02
         - 7.9326154046108155e-02
         - 3.8131860146396968e-02
         - 3.7998983146923633e-02
         - 3.0666063194211883e-02
         - 6.1321827104858936e-02
         - 8.4702800354420127e-02
         - 8.3260683175404332e-02
         - 3.6780806419365222e-02
         - 4.2470469776347025e-02
         - 1.5959417555654307e-01
         - -2.9409170118647035e-02
         - 2.0087851839510135e-02
         - -3.5654308799522028e-02
         - 3.3093508425988107e-02
         - 9.8393692065644064e-02
         - -1.4929006797153127e-01
         - -7.6767524513219304e-02
         - 1.1109747805166047e-03
         - 5.6586894016499786e-02
         - -9.0358587246760578e-03
         - -6.4133021606956357e-03
         - -6.0001168419922583e-02
         - -1.0930083575690294e-02
         - -3.7168037025371664e-02
         - 2.6450807494044857e-02
         - -2.5902280098880435e-02
         - -2.0440389560561229e-02
         - -8.2624509873427787e-02
         - 1.4163440808996583e-02
         - 3.3087984759015795e-02
         - -5.5230469912938639e-02
         - -6.9286329288576282e-02
         - 1.3271797204435408e-02
         - -9.0719581418557696e-02
         - 1.0188585335805357e-02
         - 8.2987552328355890e-02
         - -5.3098020703132964e-02
         - -7.6445694972264513e-02
         - -3.2181991676257959e-02
         - -7.2615416893347579e-02
         - 2.2120874987003793e-02
         - -2.3933181528459403e-02
         - 9.9774312308670187e-05
         - 9.7073000898466752e-02
         - 5.6586334542765175e-02
         - 1.4896927527954545e-02
         - -4.5738198288045533e-02
         - -2.2313932966401162e-01
         - 2.7276139101192164e-02
         - 7.6355019958792528e-02
         - 3.1330947330291604e-02
         - -1.8940446596998072e-02
         - 1.2252092429695320e-01
         - -3.5787437659139214e-02
         - 1.4371030930600130e-02
         - -7.3900941468804771e-02
         - 5.2460656797641753e-02
         - 1.4814350000761056e-01
         - 1.7398579876566855e-02
         - 6.1524018573445721e-02
         - 4.2118201700491562e-02
         - 6.8366722134862140e-02
         - 2.4720019332772080e-02
         - 1.6854201687300750e-02
         - 6.1212267755628907e-02
         - 5.4575568269961607e-02
         - 9.0946378145333753e-02
         - -3.9388359358170914e-02
         - 3.4958235632269819e-03
         - -1.3865349012689265e-02
         - -3.9294205544439118e-02
         - 1.9052334460123908e-02
         - -2.6422881425935740e-02
         - -9.8759864947976464e-02
         - 7.1677123532710232e-02
         - 6.5745869642638483e-02
         - -9.1771904815955933e-03
         - 2.8342179046877553e-02
         - -1.3972352368476727e-02
         - -4.0872717361937795e-02
         - -5.7076004751522254e-02
         - -6.6308828892248164e-02
         - 2.3793178680401497e-02
         - 4.9203024841414811e-02
         - -1.0559663803812075e-02
         - -8.3796262841342190e-03
         - 1.9283764546208107e-04
         - 7.2141735877676990e-03
         - 2.3117286375929396e-02
         - -6.6339200802189899e-02
         - 5.2317289721961507e-02
         - 1.1275845197097949e-01
         - 3.9430219715928930e-02
         - -3.9487304393526441e-02
         - -1.4423133381920772e-02
         - -5.9177920622449996e-02
         - 2.6834946037384400e-02
         - -6.8004474528598619e-02
         - -5.8048477430716477e-02
         - -1.0521485216559268e-01
         - 7.4088168565823911e-02
         - 9.7852522795127600e-02
         - -5.9894946794406189e-03
         - 4.2575901114221507e-02
         - -3.9652124912516039e-02
         - 3.9322856769747035e-03
         - 1.5329001989794647e-01
         - 3.4241625928447109e-02
         - 9.1785519814772440e-02
         - 1.8281072965146323e-02
         - 6.1249309158100132e-02
         - -6.9359398618863047e-02
         - -8.1709425134946403e-02
         - 5.7170484828929190e-02
         - 5.5738615751045613e-02
         - -2.5756870934130233e-01
         - -9.3803216794949865e-02
         - 2.0261899927210551e-02
         - 1.0440467930230501e-01
         - -7.3048091362085971e-03
         - -4.1946548241416172e-02
         - -8.4182805159527904e-02
         - 2.3228728490297776e-03
         - -2.0276680760625786e-02
         - 3.2466091546971373e-02
         - -3.0396574972589640e-02
         - 3.0375882200002532e-02
         - -6.1465373933588689e-02
         - -4.2457980839085618e-03
         - 8.7582310685181464e-02
         - -2.4916504234425808e-02
         - -8.5926368091345223e-03
         - 4.3770972279284281e-02
         - -9.9314438747066372e-02
         - 6.4812831211527200e-02
         - 3.0070602000575212e-02
         - -3.9035541846231994e-02
         - -1.7489063373537811e-02
         - 5.2077510783753653e-02
         - 1.5200440336998571e-02
         - -1.8807402723991073e-02
         - -1.6268192733733583e-01
         - -3.6081718729133898e-02
         - 3.0902244822633739e-04
         - 3.4556452198778814e-02
         - 7.9179137551025611e-02
         - -5.1600972875388472e-02
         - -1.2911216190364941e-01
         - -6.3483533099391006e-03
         - 3.5480596651429067e-02
         - 1.7588465477504586e-02
         - 1.3290209699753955e-01
         - 5.2458394013276705e-02
         - -1.3265427583142431e-01
         - 3.4879530840714712e-02
         - -2.6745913091516899e-01
         - 1.1784831909327537e-01
         - 6.3241370217011442e-02
         - 1.3586627867822653e-02
         - -1.4035319439857821e-02
         - 6.1030012537011714e-02
         - -7.2015144270066889e-02
         - -6.1606197141464855e-02
         - -3.1430291909853615e-02
         - 3.9095097643039858e-03
         - -1.0116056144900968e-02
         - 1.3657193665128652e-02
         - 9.0292860050180640e-02
         - -7.2939671419187238e-02
         - -3.2118865976369128e-02
         - -9.4003828145449830e-02
         - 8.1796757372654735e-03
         - -7.9495309368717723e-02
         - -9.3379859697654083e-02
         - -5.8822673660969091e-02
         - 6.5795387798255611e-02
         - -1.2771912739854949e-01
         - 2.5663012688101373e-02
         - 4.0270191970965385e-03
         - 1.1046815714210705e-01
         - -8.8004495447763550e-02
         - -1.2067948966482181e-01
         - -1.0505989631890068e-01
         - 1.1319086636218713e-01
         - -7.2720507774148610e-02
         - 6.9353442071968974e-02
         - -1.8029129036291593e-02
         - -3.7712466950825814e-02
         - -9.3290931601102908e-04
         - 1.4405629676329976e-02
         - 1.0515272762253300e-01
         - 1.2289750586814042e-01
         - 4.5244293864773563e-02
         - -1.4640389823701869e-01
         - -4.8271891220734553e-02
         - -1.7854624842059005e-02
         - 1.0339329857208399e-02
         - 9.1478112706627826e-02
         - -8.7179236390048324e-03
         - -6.8146956970613320e-02
         - 1.3572984173171501e-01
